{"learner":{"attributes":{"best_iteration":"38","best_score":"0.5265403149560386"},"feature_names":["sent_zscore","sent_ma_3","returns","volatility","rsi","gap_days"],"feature_types":["float","float","float","float","float","float"],"gradient_booster":{"model":{"cats":{"enc":[],"feature_segments":[],"sorted_idx":[]},"gbtree_model_param":{"num_parallel_tree":"1","num_trees":"139"},"iteration_indptr":[0,1,2,3,4,5,6,7,8,9,10,11,12,13,14,15,16,17,18,19,20,21,22,23,24,25,26,27,28,29,30,31,32,33,34,35,36,37,38,39,40,41,42,43,44,45,46,47,48,49,50,51,52,53,54,55,56,57,58,59,60,61,62,63,64,65,66,67,68,69,70,71,72,73,74,75,76,77,78,79,80,81,82,83,84,85,86,87,88,89,90,91,92,93,94,95,96,97,98,99,100,101,102,103,104,105,106,107,108,109,110,111,112,113,114,115,116,117,118,119,120,121,122,123,124,125,126,127,128,129,130,131,132,133,134,135,136,137,138,139],"tree_info":[0,0,0,0,0,0,0,0,0,0,0,0,0,0,0,0,0,0,0,0,0,0,0,0,0,0,0,0,0,0,0,0,0,0,0,0,0,0,0,0,0,0,0,0,0,0,0,0,0,0,0,0,0,0,0,0,0,0,0,0,0,0,0,0,0,0,0,0,0,0,0,0,0,0,0,0,0,0,0,0,0,0,0,0,0,0,0,0,0,0,0,0,0,0,0,0,0,0,0,0,0,0,0,0,0,0,0,0,0,0,0,0,0,0,0,0,0,0,0,0,0,0,0,0,0,0,0,0,0,0,0,0,0,0,0,0,0,0,0],"trees":[{"base_weights":[-3.005527E-3,7.909122E-3,-5.614531E-1,2.9364651E-2,-1.5550967E-1,-7.1326214E-1,-2.2811303E-1,2.6874855E-1,-1.5195911E-3,-3.4662125E-1,-2.284212E-2,-5.226077E-1,-1.3499265E0,6.7366436E-3,-9.925672E-3,9.471462E-3,1.631509E-3,-3.5326515E-4,2.4822804E-3,1.3404296E-3,-7.831132E-3,1.0684574E-2,-1.118967E-3,-1.4948923E-2,-3.975539E-3,-6.033894E-3,-2.4958322E-2],"categories":[],"categories_nodes":[],"categories_segments":[],"categories_sizes":[],"default_left":[0,0,0,0,0,0,0,0,0,0,0,0,0,0,0,0,0,0,0,0,0,0,0,0,0,0,0],"id":0,"left_children":[1,3,5,7,9,11,13,15,17,19,21,23,25,-1,-1,-1,-1,-1,-1,-1,-1,-1,-1,-1,-1,-1,-1],"loss_changes":[1.895664E1,1.0701096E1,2.8542938E0,1.9943588E1,8.972795E0,4.2097683E0,6.2070093E0,1.7817108E1,8.798476E0,1.1143444E1,8.048671E0,3.7395144E0,1.9192219E0,0E0,0E0,0E0,0E0,0E0,0E0,0E0,0E0,0E0,0E0,0E0,0E0,0E0,0E0],"parents":[2147483647,0,0,1,1,2,2,3,3,4,4,5,5,6,6,7,7,8,8,9,9,10,10,11,11,12,12],"right_children":[2,4,6,8,10,12,14,16,18,20,22,24,26,-1,-1,-1,-1,-1,-1,-1,-1,-1,-1,-1,-1,-1,-1],"split_conditions":[1.410628E-1,7.791725E-2,7.0710653E-1,-3.3095706E-2,-2.5962418E-2,2.3024544E-1,1.1568226E0,2.9922301E-2,5.1593468E-2,-1.1093103E-1,-2.0499412E-2,9.0645604E-2,-5.9280854E-1,6.7366436E-3,-9.925672E-3,9.471462E-3,1.631509E-3,-3.5326515E-4,2.4822804E-3,1.3404296E-3,-7.831132E-3,1.0684574E-2,-1.118967E-3,-1.4948923E-2,-3.975539E-3,-6.033894E-3,-2.4958322E-2],"split_indices":[2,3,0,2,2,3,0,3,3,2,2,3,0,0,0,0,0,0,0,0,0,0,0,0,0,0,0],"split_type":[0,0,0,0,0,0,0,0,0,0,0,0,0,0,0,0,0,0,0,0,0,0,0,0,0,0,0],"sum_hessian":[3.1083347E3,3.0497148E3,5.8619705E1,2.6965063E3,3.5320856E2,3.9493782E1,1.912592E1,3.0725665E2,2.3892498E3,1.4406537E2,2.0914317E2,3.1793737E1,7.7000456E0,7.4516573E0,1.1674263E1,9.314571E1,2.1411095E2,2.1115513E3,2.7769843E2,4.1480892E1,1.0258448E2,1.2916205E1,1.9622697E2,1.0183931E1,2.1609806E1,2.4838858E0,5.21616E0],"tree_param":{"num_deleted":"0","num_feature":"6","num_nodes":"27","size_leaf_vector":"1"}},{"base_weights":[4.992318E-3,3.5388555E-2,-2.009831E-1,2.0567587E-1,-1.1510175E-2,-3.7631267E-1,-1.2709676E-1,3.8603997E-1,6.703188E-2,-7.948376E-2,1.0675695E-1,-7.1323526E-1,-2.702693E-1,-6.1569758E-2,-4.5198232E-1,1.3765629E-3,8.431585E-3,3.5688018E-3,-1.4881433E-3,-3.8214064E-5,-3.3360594E-3,4.6972334E-3,6.1802316E-4,-4.0852083E-3,-1.8153714E-2,5.5045052E-3,-5.2574147E-3,-3.1054127E-3,3.1942888E-3,-4.5555844E-3,-1.1521364E-2],"categories":[],"categories_nodes":[],"categories_segments":[],"categories_sizes":[],"default_left":[0,0,0,0,0,0,0,0,0,0,0,0,0,0,0,0,0,0,0,0,0,0,0,0,0,0,0,0,0,0,0],"id":1,"left_children":[1,3,5,7,9,11,13,15,17,19,21,23,25,27,29,-1,-1,-1,-1,-1,-1,-1,-1,-1,-1,-1,-1,-1,-1,-1,-1],"loss_changes":[1.9426071E1,2.1594257E1,5.121063E0,1.45746E1,1.7057365E1,4.0155087E0,5.9802847E0,1.308477E1,9.436101E0,1.4814036E1,1.0465569E1,5.715419E0,4.7908792E0,9.468282E0,1.9795399E0,0E0,0E0,0E0,0E0,0E0,0E0,0E0,0E0,0E0,0E0,0E0,0E0,0E0,0E0,0E0,0E0],"parents":[2147483647,0,0,1,1,2,2,3,3,4,4,5,5,6,6,7,7,8,8,9,9,10,10,11,11,12,12,13,13,14,14],"right_children":[2,4,6,8,10,12,14,16,18,20,22,24,26,28,30,-1,-1,-1,-1,-1,-1,-1,-1,-1,-1,-1,-1,-1,-1,-1,-1],"split_conditions":[7.791725E-2,-1.7445408E-2,-4.2961996E-2,2.9922301E-2,2.9424723E-2,-2.3925591E-2,1.010329E0,-5.652052E-1,-4.1905787E-2,1.0243994E-2,-3.58857E-4,1.1584507E-1,-1.8267837E-1,7.4441574E-4,1.410628E-1,1.3765629E-3,8.431585E-3,3.5688018E-3,-1.4881433E-3,-3.8214064E-5,-3.3360594E-3,4.6972334E-3,6.1802316E-4,-4.0852083E-3,-1.8153714E-2,5.5045052E-3,-5.2574147E-3,-3.1054127E-3,3.1942888E-3,-4.5555844E-3,-1.1521364E-2],"split_indices":[3,2,2,3,3,1,0,0,2,2,1,3,2,0,2,0,0,0,0,0,0,0,0,0,0,0,0,0,0,0,0],"split_type":[0,0,0,0,0,0,0,0,0,0,0,0,0,0,0,0,0,0,0,0,0,0,0,0,0,0,0,0,0,0,0],"sum_hessian":[3.100635E3,2.7026301E3,3.9800476E2,5.828696E2,2.1197605E3,1.1678505E2,2.8121973E2,2.5254523E2,3.303244E2,1.3463048E3,7.734557E2,2.6586895E1,9.019815E1,2.3500955E2,4.6210167E1,9.510752E1,1.574377E2,1.626731E2,1.676513E2,8.7584283E2,4.7046194E2,1.8553813E2,5.879176E2,1.4909233E1,1.1677662E1,9.686107E0,8.051205E1,1.5377602E2,8.1233536E1,3.279011E1,1.3420056E1],"tree_param":{"num_deleted":"0","num_feature":"6","num_nodes":"31","size_leaf_vector":"1"}},{"base_weights":[2.0184593E-2,8.8453926E-2,-8.121758E-2,1.1489968E-1,-1.0736671E-1,1.8580703E-4,-2.6006186E-1,-1.7068477E-2,1.5995578E-1,4.7162357E-1,-1.51594E-1,-8.8751726E-2,1.7282754E-1,-1.3680503E-1,-4.5220113E-1,-1.2959848E-2,2.8141122E-4,2.7600315E-3,-6.011195E-4,-1.3555777E-2,1.0148516E-2,-2.723505E-3,7.913545E-3,2.7354507E-4,-7.2366334E-3,1.4833179E-2,2.2413088E-3,-4.26729E-3,1.0972725E-3,1.2560794E-3,-8.1631355E-3],"categories":[],"categories_nodes":[],"categories_segments":[],"categories_sizes":[],"default_left":[0,0,0,0,0,0,0,0,0,0,0,0,0,0,0,0,0,0,0,0,0,0,0,0,0,0,0,0,0,0,0],"id":2,"left_children":[1,3,5,7,9,11,13,15,17,19,21,23,25,27,29,-1,-1,-1,-1,-1,-1,-1,-1,-1,-1,-1,-1,-1,-1,-1,-1],"loss_changes":[2.1423435E1,9.589475E0,1.8129585E1,9.693481E0,5.7193584E0,1.3170466E1,9.162849E0,1.2631032E1,5.8519077E0,5.091827E0,4.282375E0,2.385417E1,5.4229918E0,7.422919E0,7.530405E0,0E0,0E0,0E0,0E0,0E0,0E0,0E0,0E0,0E0,0E0,0E0,0E0,0E0,0E0,0E0,0E0],"parents":[2147483647,0,0,1,1,2,2,3,3,4,4,5,5,6,6,7,7,8,8,9,9,10,10,11,11,12,12,13,13,14,14],"right_children":[2,4,6,8,10,12,14,16,18,20,22,24,26,28,30,-1,-1,-1,-1,-1,-1,-1,-1,-1,-1,-1,-1,-1,-1,-1,-1],"split_conditions":[6.326859E1,1.4163454E-1,3E0,3.0404768E1,1.2036808E1,8.584667E1,8.666668E1,5.4437383E-3,7.791725E-2,1.631596E-1,6.2342613E1,6.1820578E-2,-3.3341587E-1,4E0,1.321964E-3,-1.2959848E-2,2.8141122E-4,2.7600315E-3,-6.011195E-4,-1.3555777E-2,1.0148516E-2,-2.723505E-3,7.913545E-3,2.7354507E-4,-7.2366334E-3,1.4833179E-2,2.2413088E-3,-4.26729E-3,1.0972725E-3,1.2560794E-3,-8.1631355E-3],"split_indices":[4,1,5,4,4,4,4,3,3,1,4,3,1,5,1,0,0,0,0,0,0,0,0,0,0,0,0,0,0,0,0],"split_type":[0,0,0,0,0,0,0,0,0,0,0,0,0,0,0,0,0,0,0,0,0,0,0,0,0,0,0,0,0,0,0],"sum_hessian":[3.0926455E3,1.8483594E3,1.2442861E3,1.6288015E3,2.1955788E2,8.557699E2,3.8851624E2,4.1471967E2,1.2140819E3,1.4895366E1,2.046625E2,5.6512695E2,2.9064294E2,2.37727E2,1.5078923E2,1.5894549E1,3.9882513E2,1.0838668E3,1.3021503E2,1.4895682E0,1.3405798E1,1.9671375E2,7.9487557E0,4.4511703E2,1.20009895E2,6.954004E0,2.8368893E2,1.3935286E2,9.8374146E1,2.2107061E1,1.2868217E2],"tree_param":{"num_deleted":"0","num_feature":"6","num_nodes":"31","size_leaf_vector":"1"}},{"base_weights":[8.419013E-3,3.1001326E-2,-3.274378E-1,1.0494561E-1,-4.4466168E-2,-2.727658E-1,-6.370369E-1,1.8487053E-1,2.7588882E-2,-1.290279E-2,-3.292614E-2,-3.8952652E-1,1.7643666E-1,-9.656317E-1,-1.3882351E-1,8.326941E-3,1.6316107E-3,1.0283509E-2,1.6953188E-4,-1.8701486E-3,6.748168E-4,-6.842685E-3,6.4969445E-3,6.80057E-3,-6.8179686E-3,-8.372283E-3,-2.1531994E-2,3.9430354E-3,-9.253275E-3],"categories":[],"categories_nodes":[],"categories_segments":[],"categories_sizes":[],"default_left":[0,0,0,0,0,0,0,0,0,0,0,0,0,0,0,0,0,0,0,0,0,0,0,0,0,0,0,0,0],"id":3,"left_children":[1,3,5,7,9,11,13,15,17,-1,19,21,23,25,27,-1,-1,-1,-1,-1,-1,-1,-1,-1,-1,-1,-1,-1,-1],"loss_changes":[2.3339275E1,1.609321E1,3.1078491E0,9.000164E0,1.3409645E1,8.802894E0,4.507002E0,2.0118616E1,7.936551E0,0E0,1.0075591E1,7.461895E0,6.329438E0,2.4370556E0,2.550022E0,0E0,0E0,0E0,0E0,0E0,0E0,0E0,0E0,0E0,0E0,0E0,0E0,0E0,0E0],"parents":[2147483647,0,0,1,1,2,2,3,3,4,4,5,5,6,6,7,7,8,8,10,10,11,11,12,12,13,13,14,14],"right_children":[2,4,6,8,10,12,14,16,18,-1,20,22,24,26,28,-1,-1,-1,-1,-1,-1,-1,-1,-1,-1,-1,-1,-1,-1],"split_conditions":[1.1584507E-1,2.3445897E-3,1.7857143E-1,2.5000362E-2,-1.859169E0,5.824176E-2,4.333366E-1,-2.4285857E-2,-1.1093103E-1,-1.290279E-2,2.6147192E-2,5.4279286E-1,1.9219126E-1,2.3024544E-1,1.1568226E0,8.326941E-3,1.6316107E-3,1.0283509E-2,1.6953188E-4,-1.8701486E-3,6.748168E-4,-6.842685E-3,6.4969445E-3,6.80057E-3,-6.8179686E-3,-8.372283E-3,-2.1531994E-2,3.9430354E-3,-9.253275E-3],"split_indices":[3,2,2,3,0,2,0,2,2,0,3,3,3,3,0,0,0,0,0,0,0,0,0,0,0,0,0,0,0],"split_type":[0,0,0,0,0,0,0,0,0,0,0,0,0,0,0,0,0,0,0,0,0,0,0,0,0,0,0,0,0],"sum_hessian":[3.0749255E3,2.88205E3,1.9287537E2,1.4555186E3,1.4265315E3,1.6552618E2,2.7349184E1,7.151924E2,7.403262E2,1.8873835E1,1.4076577E3,1.3148283E2,3.404335E1,1.5914587E1,1.1434597E1,1.208557E2,5.9433673E2,1.688984E1,7.2343634E2,6.4615436E2,7.615033E2,1.2204047E2,9.442367E0,2.3854826E1,1.0188524E1,9.694601E0,6.2199864E0,6.458206E0,4.976391E0],"tree_param":{"num_deleted":"0","num_feature":"6","num_nodes":"29","size_leaf_vector":"1"}},{"base_weights":[-1.2125411E-3,1.0116235E-2,-5.5197495E-1,7.114761E-2,-6.0731232E-2,-8.1853634E-1,-1.9722833E-1,9.431198E-2,-2.761969E-1,-1.8101758E-1,4.4322103E-2,-3.8348648E-1,-1.49711715E-2,8.149298E-3,-3.5100484E-1,1.091348E-2,1.2904626E-3,-5.1858043E-3,6.3451678E-3,-2.8797549E-3,1.4233692E-2,1.1060993E-3,-2.558494E-3,-1.2623156E-2,3.2251345E-3,-1.8174862E-2,-1.3481125E-3],"categories":[],"categories_nodes":[],"categories_segments":[],"categories_sizes":[],"default_left":[0,0,0,0,0,0,0,0,0,0,0,0,0,0,0,0,0,0,0,0,0,0,0,0,0,0,0],"id":4,"left_children":[1,3,5,7,9,11,13,15,17,19,21,23,-1,-1,25,-1,-1,-1,-1,-1,-1,-1,-1,-1,-1,-1,-1],"loss_changes":[1.9324484E1,1.3126643E1,5.7412815E0,1.3147622E1,1.7762348E1,2.3763447E0,3.3903732E0,7.9587326E0,5.114993E0,8.300823E0,4.7587724E0,3.4550722E0,0E0,0E0,5.256686E0,0E0,0E0,0E0,0E0,0E0,0E0,0E0,0E0,0E0,0E0,0E0,0E0],"parents":[2147483647,0,0,1,1,2,2,3,3,4,4,5,5,6,6,7,7,8,8,9,9,10,10,11,11,14,14],"right_children":[2,4,6,8,10,12,14,16,18,20,22,24,-1,-1,26,-1,-1,-1,-1,-1,-1,-1,-1,-1,-1,-1,-1],"split_conditions":[1.410628E-1,3.9024495E-3,5.1090246E-1,1.1584507E-1,2.8119083E-2,-6.500763E-1,7.289675E-2,-1.1093103E-1,5.4279286E-1,2.2933576E0,9.735665E-2,-8.721654E-1,-1.49711715E-2,8.149298E-3,9.0645604E-2,1.091348E-2,1.2904626E-3,-5.1858043E-3,6.3451678E-3,-2.8797549E-3,1.4233692E-2,1.1060993E-3,-2.558494E-3,-1.2623156E-2,3.2251345E-3,-1.8174862E-2,-1.3481125E-3],"split_indices":[2,2,0,3,3,0,3,2,3,0,3,0,0,0,3,0,0,0,0,0,0,0,0,0,0,0,0],"split_type":[0,0,0,0,0,0,0,0,0,0,0,0,0,0,0,0,0,0,0,0,0,0,0,0,0,0,0],"sum_hessian":[3.0952437E3,3.0338218E3,6.142185E1,1.6298164E3,1.4040055E3,3.43234E1,2.7098448E1,1.5286025E3,1.0121387E2,6.542101E2,7.497954E2,1.094306E1,2.338034E1,4.2241206E0,2.2874327E1,1.8610504E1,1.509992E3,9.2520004E1,8.693859E0,6.487441E2,5.46603E0,6.600874E2,8.970801E1,5.968773E0,4.974287E0,4.4773903E0,1.8396936E1],"tree_param":{"num_deleted":"0","num_feature":"6","num_nodes":"27","size_leaf_vector":"1"}},{"base_weights":[-5.1577175E-3,2.2359215E-2,-1.926338E-1,9.903062E-2,-2.203501E-2,-3.3593867E-2,-3.0384982E-1,3.6762558E-2,2.1075676E-1,-2.8462815E-1,-7.4264463E-3,7.873625E-2,-2.0483571E-1,-2.5616527E-1,-8.445342E-1,-8.780764E-3,7.401168E-4,-6.523309E-3,3.5625014E-3,-7.2512715E-3,5.7906057E-3,2.7502747E-3,-2.9645528E-4,-2.4482553E-5,8.604503E-3,-3.8026252E-3,1.3402353E-2,-1.0496624E-2,-2.8776038E-3,8.2984E-4,-1.458806E-2],"categories":[],"categories_nodes":[],"categories_segments":[],"categories_sizes":[],"default_left":[0,0,0,0,0,0,0,0,0,0,0,0,0,0,0,0,0,0,0,0,0,0,0,0,0,0,0,0,0,0,0],"id":5,"left_children":[1,3,5,7,9,11,13,15,17,19,21,23,25,27,29,-1,-1,-1,-1,-1,-1,-1,-1,-1,-1,-1,-1,-1,-1,-1,-1],"loss_changes":[1.5932114E1,9.169368E0,6.981345E0,6.864233E0,6.544065E0,3.1667027E0,5.777714E0,5.0020666E0,6.2034483E0,1.2172817E1,3.8108327E0,3.9636343E0,3.7097778E0,6.0031157E0,2.1739607E0,0E0,0E0,0E0,0E0,0E0,0E0,0E0,0E0,0E0,0E0,0E0,0E0,0E0,0E0,0E0,0E0],"parents":[2147483647,0,0,1,1,2,2,3,3,4,4,5,5,6,6,7,7,8,8,9,9,10,10,11,11,12,12,13,13,14,14],"right_children":[2,4,6,8,10,12,14,16,18,20,22,24,26,28,30,-1,-1,-1,-1,-1,-1,-1,-1,-1,-1,-1,-1,-1,-1,-1,-1],"split_conditions":[7.791725E-2,4.9960595E-3,5.9227463E1,3.660828E-2,6.663865E-3,1.1584507E-1,3.13769E-1,-5.493908E-1,8.032573E0,4.8419762E-2,9.46638E-3,5.518899E1,5.4279286E-1,-6.916205E-2,8.2249664E-2,-8.780764E-3,7.401168E-4,-6.523309E-3,3.5625014E-3,-7.2512715E-3,5.7906057E-3,2.7502747E-3,-2.9645528E-4,-2.4482553E-5,8.604503E-3,-3.8026252E-3,1.3402353E-2,-1.0496624E-2,-2.8776038E-3,8.2984E-4,-1.458806E-2],"split_indices":[3,1,4,3,1,3,1,1,4,3,1,4,3,1,3,0,0,0,0,0,0,0,0,0,0,0,0,0,0,0,0],"split_type":[0,0,0,0,0,0,0,0,0,0,0,0,0,0,0,0,0,0,0,0,0,0,0,0,0,0,0,0,0,0,0],"sum_hessian":[3.0865225E3,2.6922468E3,3.9427567E2,9.8678357E2,1.7054633E3,1.6278859E2,2.3148708E2,6.344925E2,3.522911E2,8.890403E1,1.6165592E3,9.863008E1,6.4158516E1,2.1408046E2,1.7406614E1,1.1671502E1,6.22821E2,1.3404919E1,3.388862E2,6.879269E1,2.011134E1,9.734796E1,1.5192112E3,8.570826E1,1.2921817E1,6.217251E1,1.986006E0,2.5860168E1,1.8822029E2,2.2384188E0,1.5168196E1],"tree_param":{"num_deleted":"0","num_feature":"6","num_nodes":"31","size_leaf_vector":"1"}},{"base_weights":[2.3039929E-3,5.9746455E-2,-1.0918517E-1,8.7371044E-2,-5.479022E-2,-1.6678564E-1,2.8512582E-2,-2.4741918E-1,9.9449225E-2,-3.8179913E-1,1.7453978E-3,2.6279818E-2,-2.1134517E-1,8.269199E-2,-3.1582037E-1,-1.3192087E-2,-1.6394651E-3,6.382457E-3,1.3670975E-3,-7.107899E-4,-1.3008958E-2,-1.2036844E-3,2.2918952E-3,2.0715932E-3,-1.2582159E-2,-4.2573656E-3,-1.0252028E-3,4.559623E-3,2.1044252E-4,-2.6664828E-4,-1.256994E-2],"categories":[],"categories_nodes":[],"categories_segments":[],"categories_sizes":[],"default_left":[0,0,0,0,0,0,0,0,0,0,0,0,0,0,0,0,0,0,0,0,0,0,0,0,0,0,0,0,0,0,0],"id":6,"left_children":[1,3,5,7,9,11,13,15,17,19,21,23,25,27,29,-1,-1,-1,-1,-1,-1,-1,-1,-1,-1,-1,-1,-1,-1,-1,-1],"loss_changes":[1.982739E1,6.469608E0,8.35459E0,6.682785E0,7.352304E0,6.3923664E0,5.8345428E0,4.9342365E0,4.2688103E0,9.475537E0,4.2234006E0,1.3669581E1,6.2334137E0,4.095201E0,6.605113E0,0E0,0E0,0E0,0E0,0E0,0E0,0E0,0E0,0E0,0E0,0E0,0E0,0E0,0E0,0E0,0E0],"parents":[2147483647,0,0,1,1,2,2,3,3,4,4,5,5,6,6,7,7,8,8,9,9,10,10,11,11,12,12,13,13,14,14],"right_children":[2,4,6,8,10,12,14,16,18,20,22,24,26,28,30,-1,-1,-1,-1,-1,-1,-1,-1,-1,-1,-1,-1,-1,-1,-1,-1],"split_conditions":[6.746984E1,8.0184184E-2,5.501379E-1,-4.364004E-1,1.2184439E-2,6.555575E-4,9.735665E-2,1.8042898E-2,-3.3341587E-1,9.492545E-3,1.1404767E0,8.9019276E-2,5.816112E-2,2.9523227E-2,1.1546106E0,-1.3192087E-2,-1.6394651E-3,6.382457E-3,1.3670975E-3,-7.107899E-4,-1.3008958E-2,-1.2036844E-3,2.2918952E-3,2.0715932E-3,-1.2582159E-2,-4.2573656E-3,-1.0252028E-3,4.559623E-3,2.1044252E-4,-2.6664828E-4,-1.256994E-2],"split_indices":[4,1,0,1,3,1,3,3,1,3,0,3,1,1,0,0,0,0,0,0,0,0,0,0,0,0,0,0,0,0,0],"split_type":[0,0,0,0,0,0,0,0,0,0,0,0,0,0,0,0,0,0,0,0,0,0,0,0,0,0,0,0,0,0,0],"sum_hessian":[3.0939739E3,2.0422245E3,1.0517495E3,1.6455732E3,3.9665125E2,7.414018E2,3.1034772E2,5.6621452E1,1.5889518E3,5.761954E1,3.390317E2,1.3910487E2,6.022969E2,2.688112E2,4.153652E1,9.191795E0,4.7429657E1,3.8240612E1,1.5507112E3,3.47675E1,2.285204E1,2.2005249E2,1.1897921E2,1.2392588E2,1.517899E1,3.9905142E2,2.0324545E2,6.2846092E1,2.059651E2,2.7101662E1,1.4434855E1],"tree_param":{"num_deleted":"0","num_feature":"6","num_nodes":"31","size_leaf_vector":"1"}},{"base_weights":[-2.7484254E-3,4.678451E-2,-9.1978244E-2,4.1696172E-2,8.3863956E-1,6.0131536E-3,-3.1126413E-1,6.305666E-2,-1.1907879E-1,1.1611454E0,-3.666859E-3,-1.0151188E-1,1.8357593E-1,-1.9144674E-1,-5.013405E-1,-5.4466487E-3,1.0881233E-3,7.4786856E-3,-2.3980627E-3,1.1389964E-3,2.0726826E-2,-2.2270677E-3,3.224328E-3,6.292415E-3,1.2015334E-3,-2.8607826E-4,-5.1561426E-3,-6.562753E-3,-1.5448313E-2],"categories":[],"categories_nodes":[],"categories_segments":[],"categories_sizes":[],"default_left":[0,0,0,0,0,0,0,0,0,0,0,0,0,0,0,0,0,0,0,0,0,0,0,0,0,0,0,0,0],"id":7,"left_children":[1,3,5,7,9,11,13,15,17,19,-1,21,23,25,27,-1,-1,-1,-1,-1,-1,-1,-1,-1,-1,-1,-1,-1,-1],"loss_changes":[1.3700989E1,7.9968657E0,2.3779224E1,6.8131886E0,4.711338E0,1.4638889E1,7.6877213E0,7.099932E0,5.944177E0,2.2753534E0,0E0,7.129371E0,7.025528E0,5.5391245E0,3.9862595E0,0E0,0E0,0E0,0E0,0E0,0E0,0E0,0E0,0E0,0E0,0E0,0E0,0E0,0E0],"parents":[2147483647,0,0,1,1,2,2,3,3,4,4,5,5,6,6,7,7,8,8,9,9,11,11,12,12,13,13,14,14],"right_children":[2,4,6,8,10,12,14,16,18,20,-1,22,24,26,28,-1,-1,-1,-1,-1,-1,-1,-1,-1,-1,-1,-1,-1,-1],"split_conditions":[6.638805E1,6.608996E1,3E0,1.4163454E-1,8.0184184E-2,8.584667E1,8.8883575E1,-4.675545E-1,-6.784578E-1,-1.2533214E0,-3.666859E-3,1.2829276E0,5.347839E-3,9.187775E-3,1.3706095E0,-5.4466487E-3,1.0881233E-3,7.4786856E-3,-2.3980627E-3,1.1389964E-3,2.0726826E-2,-2.2270677E-3,3.224328E-3,6.292415E-3,1.2015334E-3,-2.8607826E-4,-5.1561426E-3,-6.562753E-3,-1.5448313E-2],"split_indices":[4,4,5,1,1,4,4,1,0,0,0,0,1,1,0,0,0,0,0,0,0,0,0,0,0,0,0,0,0],"split_type":[0,0,0,0,0,0,0,0,0,0,0,0,0,0,0,0,0,0,0,0,0,0,0,0,0,0,0,0,0],"sum_hessian":[3.0979275E3,1.9923931E3,1.1055344E3,1.9807179E3,1.1675133E1,7.647612E2,3.4077316E2,1.7489597E3,2.3175824E2,8.940827E0,2.7343056E0,4.765871E2,2.881741E2,2.1024771E2,1.3052545E2,3.72662E1,1.7116935E3,1.3662556E1,2.1809569E2,1.7377942E0,7.203033E0,4.1546826E2,6.1118855E1,8.6927246E1,2.0124687E2,9.915047E1,1.11097244E2,1.18093124E2,1.2432328E1],"tree_param":{"num_deleted":"0","num_feature":"6","num_nodes":"29","size_leaf_vector":"1"}},{"base_weights":[-1.4839802E-3,6.219865E-2,-1.2287087E-1,2.1643962E-1,-4.2111058E-2,-2.082736E-2,-3.5157132E-1,3.0034125E-1,3.1014511E-2,-3.157704E-1,-4.588376E-4,-4.8625684E-1,7.342684E-2,-2.395643E-1,-4.977175E-1,2.6215543E-3,6.439964E-3,-3.1336318E-3,3.8051587E-3,-5.5320077E-3,4.7264807E-3,-1.0845773E-3,2.0079603E-3,-1.5906448E-2,-4.860792E-3,-8.9962396E-4,2.307372E-3,-4.0362617E-3,1.1862013E-2,-8.46559E-3,1.400671E-3],"categories":[],"categories_nodes":[],"categories_segments":[],"categories_sizes":[],"default_left":[0,0,0,0,0,0,0,0,0,0,0,0,0,0,0,0,0,0,0,0,0,0,0,0,0,0,0,0,0,0,0],"id":8,"left_children":[1,3,5,7,9,11,13,15,17,19,21,23,25,27,29,-1,-1,-1,-1,-1,-1,-1,-1,-1,-1,-1,-1,-1,-1,-1,-1],"loss_changes":[2.3866896E1,3.2590374E1,2.4786304E1,1.270369E1,1.3779777E1,3.230915E1,5.2452774E0,9.035706E0,1.3711975E1,5.4588337E0,1.0145E1,1.120719E1,6.580125E0,5.914465E0,5.6183167E0,0E0,0E0,0E0,0E0,0E0,0E0,0E0,0E0,0E0,0E0,0E0,0E0,0E0,0E0,0E0,0E0],"parents":[2147483647,0,0,1,1,2,2,3,3,4,4,5,5,6,6,7,7,8,8,9,9,10,10,11,11,12,12,13,13,14,14],"right_children":[2,4,6,8,10,12,14,16,18,20,22,24,26,28,30,-1,-1,-1,-1,-1,-1,-1,-1,-1,-1,-1,-1,-1,-1,-1,-1],"split_conditions":[6.746984E1,-8.172605E-3,3E0,3E0,2.7083319E1,-1.25591345E-2,2.0676972E-2,-2.4969693E-1,4E0,4.4781666E-2,2E0,-5.645789E-2,7.9569885E1,1.9483747E-2,6E0,2.6215543E-3,6.439964E-3,-3.1336318E-3,3.8051587E-3,-5.5320077E-3,4.7264807E-3,-1.0845773E-3,2.0079603E-3,-1.5906448E-2,-4.860792E-3,-8.9962396E-4,2.307372E-3,-4.0362617E-3,1.1862013E-2,-8.46559E-3,1.400671E-3],"split_indices":[4,2,5,5,4,2,2,0,5,2,5,2,4,2,5,0,0,0,0,0,0,0,0,0,0,0,0,0,0,0,0],"split_type":[0,0,0,0,0,0,0,0,0,0,0,0,0,0,0,0,0,0,0,0,0,0,0,0,0,0,0,0,0,0,0],"sum_hessian":[3.0854846E3,2.0240857E3,1.0613989E3,8.1616364E2,1.2079221E3,7.346829E2,3.2671597E2,5.614827E2,2.5468092E2,1.5869548E2,1.0492266E3,1.2302476E2,6.1165814E2,1.8645517E2,1.4026082E2,2.8570493E2,2.7577777E2,1.2261871E2,1.3206221E2,1.4677328E2,1.1922187E1,6.838905E2,3.6533612E2,2.587925E1,9.714551E1,2.3010548E2,3.8155267E2,1.819803E2,4.4748645E0,1.26087685E2,1.4173132E1],"tree_param":{"num_deleted":"0","num_feature":"6","num_nodes":"31","size_leaf_vector":"1"}},{"base_weights":[2.2852434E-2,9.308107E-2,-5.5408746E-2,1.1749098E-1,-2.7465045E-1,-1.6451952E-1,1.9752575E-2,1.7923494E-1,5.4260075E-2,-3.3091286E-1,6.1139804E-3,-1.8954825E-2,-2.644161E-1,5.6074824E-2,-4.8566705E-1,8.367892E-3,1.6586742E-3,2.2907957E-4,4.096687E-3,3.349264E-3,-5.7137264E-3,-8.762425E-3,6.422039E-4,-7.1029966E-3,-2.940663E-3,2.9985319E-4,3.4111382E-3,-1.3135262E-2,-4.965225E-3],"categories":[],"categories_nodes":[],"categories_segments":[],"categories_sizes":[],"default_left":[0,0,0,0,0,0,0,0,0,0,0,0,0,0,0,0,0,0,0,0,0,0,0,0,0,0,0,0,0],"id":9,"left_children":[1,3,5,7,9,11,13,15,17,19,-1,21,23,25,27,-1,-1,-1,-1,-1,-1,-1,-1,-1,-1,-1,-1,-1,-1],"loss_changes":[1.7004414E1,1.46680355E1,1.2004734E1,5.9624043E0,4.0422387E0,8.676439E0,1.5951268E1,2.004589E1,6.456597E0,2.7062693E0,0E0,8.545185E0,4.9681053E0,5.004273E0,3.224286E0,0E0,0E0,0E0,0E0,0E0,0E0,0E0,0E0,0E0,0E0,0E0,0E0,0E0,0E0],"parents":[2147483647,0,0,1,1,2,2,3,3,4,4,5,5,6,6,7,7,8,8,9,9,11,11,12,12,13,13,14,14],"right_children":[2,4,6,8,10,12,14,16,18,20,-1,22,24,26,28,-1,-1,-1,-1,-1,-1,-1,-1,-1,-1,-1,-1,-1,-1],"split_conditions":[3.9024495E-3,1.1584507E-1,2.5180386E-2,2.4786567E-2,5.4279286E-1,1.1985268E-2,1.410628E-1,-2.4285857E-2,4E0,-1.8267837E-1,6.1139804E-3,4.645325E-3,1.5913352E-2,4E0,9.0645604E-2,8.367892E-3,1.6586742E-3,2.2907957E-4,4.096687E-3,3.349264E-3,-5.7137264E-3,-8.762425E-3,6.422039E-4,-7.1029966E-3,-2.940663E-3,2.9985319E-4,3.4111382E-3,-1.3135262E-2,-4.965225E-3],"split_indices":[2,3,3,3,3,2,2,2,5,2,0,2,2,5,3,0,0,0,0,0,0,0,0,0,0,0,0,0,0],"split_type":[0,0,0,0,0,0,0,0,0,0,0,0,0,0,0,0,0,0,0,0,0,0,0,0,0,0,0,0,0],"sum_hessian":[3.0919246E3,1.6294912E3,1.4624333E3,1.5286973E3,1.0079396E2,5.9601575E2,8.664176E2,7.725145E2,7.561827E2,9.359086E1,7.2031007E0,2.4304764E2,3.529681E2,8.0915625E2,5.7261387E1,1.1748552E2,6.55029E2,6.427482E2,1.1343449E2,7.4585814E0,8.613228E1,2.31114E1,2.1993625E2,8.5509476E1,2.6745862E2,6.6931E2,1.3984622E2,1.4934866E1,4.2326523E1],"tree_param":{"num_deleted":"0","num_feature":"6","num_nodes":"29","size_leaf_vector":"1"}},{"base_weights":[8.7148575E-3,1.24742255E-1,-5.0094776E-2,2.2618996E-1,-4.4656688E-1,-3.8351268E-2,-4.2778936E-1,4.1150054E-1,1.1521944E-1,2.9257134E-1,-5.1898706E-1,-1.2444292E-1,2.2016237E-2,1.37124425E-2,-4.8778042E-1,3.8050076E-3,9.558581E-3,2.134363E-3,-4.0326403E-3,-5.6169424E-3,1.0511013E-2,-1.3588401E-2,-6.1218985E-3,-1.3461551E-3,-5.3033032E-3,-4.80448E-3,6.465244E-4,-9.005009E-3,1.0254766E-3],"categories":[],"categories_nodes":[],"categories_segments":[],"categories_sizes":[],"default_left":[0,0,0,0,0,0,0,0,0,0,0,0,0,0,0,0,0,0,0,0,0,0,0,0,0,0,0,0,0],"id":10,"left_children":[1,3,5,7,9,11,13,15,17,19,21,23,25,-1,27,-1,-1,-1,-1,-1,-1,-1,-1,-1,-1,-1,-1,-1,-1],"loss_changes":[2.1093025E1,6.0363796E1,9.083103E0,1.8123772E1,8.562605E0,1.0349054E1,5.4183607E0,1.1616371E1,5.7989407E0,4.2539415E0,5.7839127E0,6.492857E0,8.466372E0,0E0,3.7827044E0,0E0,0E0,0E0,0E0,0E0,0E0,0E0,0E0,0E0,0E0,0E0,0E0,0E0,0E0],"parents":[2147483647,0,0,1,1,2,2,3,3,4,4,5,5,6,6,7,7,8,8,9,9,10,10,11,11,12,12,14,14],"right_children":[2,4,6,8,10,12,14,16,18,20,22,24,26,-1,28,-1,-1,-1,-1,-1,-1,-1,-1,-1,-1,-1,-1,-1,-1],"split_conditions":[-8.172605E-3,7.279622E1,1.410628E-1,2.4786567E-2,1.4960298E-2,2.0548481E-2,4.002134E1,1.7458403E-2,1.4341578E-1,-5.7903504E-1,-4.9753685E-2,1.8042898E-2,2.3142231E1,1.37124425E-2,1E2,3.8050076E-3,9.558581E-3,2.134363E-3,-4.0326403E-3,-5.6169424E-3,1.0511013E-2,-1.3588401E-2,-6.1218985E-3,-1.3461551E-3,-5.3033032E-3,-4.80448E-3,6.465244E-4,-9.005009E-3,1.0254766E-3],"split_indices":[2,4,2,3,3,3,4,3,3,0,2,3,4,0,4,0,0,0,0,0,0,0,0,0,0,0,0,0,0],"split_type":[0,0,0,0,0,0,0,0,0,0,0,0,0,0,0,0,0,0,0,0,0,0,0,0,0,0,0,0,0],"sum_hessian":[3.0893035E3,1.0387666E3,2.0505369E3,8.826399E2,1.561268E2,1.9897712E3,6.0765636E1,3.2957376E2,5.530661E2,1.36608515E1,1.4246594E2,8.19706E2,1.1700652E3,1.9909674E0,5.877467E1,1.9520946E2,1.3436432E2,5.1723706E2,3.5829037E1,5.2172318E0,8.44362E0,3.0132202E1,1.1233374E2,7.130977E2,1.0660831E2,6.7066734E1,1.1029985E3,4.8815804E1,9.958865E0],"tree_param":{"num_deleted":"0","num_feature":"6","num_nodes":"29","size_leaf_vector":"1"}},{"base_weights":[-1.0475731E-2,3.8144488E-2,-1.0195706E-1,1.3261046E-1,-8.044638E-2,-8.344923E-1,-6.981173E-2,1.8767686E-1,2.815266E-3,-2.106768E-1,1.4008811E-1,-2.7355198E-2,-6.2118995E-1,3.6529515E-2,-3.062314E-1,5.9326426E-3,1.6696953E-3,-7.928462E-3,1.639947E-3,-7.8879E-3,-2.3348397E-3,4.288636E-3,-1.7437785E-3,-3.9507337E-3,-1.321886E-2,-3.892743E-3,2.369908E-3,6.062473E-4,-6.149384E-3],"categories":[],"categories_nodes":[],"categories_segments":[],"categories_sizes":[],"default_left":[0,0,0,0,0,0,0,0,0,0,0,0,0,0,0,0,0,0,0,0,0,0,0,0,0,0,0,0,0],"id":11,"left_children":[1,3,5,7,9,11,13,15,17,19,21,-1,23,25,27,-1,-1,-1,-1,-1,-1,-1,-1,-1,-1,-1,-1,-1,-1],"loss_changes":[1.3776485E1,2.2669573E1,2.5252018E1,8.048784E0,2.5803555E1,8.381607E0,2.5925776E1,1.2505249E1,1.9102726E1,9.709698E0,1.2510186E1,0E0,3.360795E0,2.56389E1,1.1519197E1,0E0,0E0,0E0,0E0,0E0,0E0,0E0,0E0,0E0,0E0,0E0,0E0,0E0,0E0],"parents":[2147483647,0,0,1,1,2,2,3,3,4,4,5,5,6,6,7,7,8,8,9,9,10,10,12,12,13,13,14,14],"right_children":[2,4,6,8,10,12,14,16,18,20,22,-1,24,26,28,-1,-1,-1,-1,-1,-1,-1,-1,-1,-1,-1,-1,-1,-1],"split_conditions":[6.746984E1,9.404431E-4,-5.0929524E-2,3E0,2E0,-2.7219752E-2,3E0,9.298475E-4,-6.916205E-2,3.0404768E1,2.9523227E-2,-2.7355198E-2,7.378367E1,0E0,-1.5857707E-3,5.9326426E-3,1.6696953E-3,-7.928462E-3,1.639947E-3,-7.8879E-3,-2.3348397E-3,4.288636E-3,-1.7437785E-3,-3.9507337E-3,-1.321886E-2,-3.892743E-3,2.369908E-3,6.062473E-4,-6.149384E-3],"split_indices":[4,2,2,5,5,1,5,1,1,4,1,0,4,2,2,0,0,0,0,0,0,0,0,0,0,0,0,0,0],"split_type":[0,0,0,0,0,0,0,0,0,0,0,0,0,0,0,0,0,0,0,0,0,0,0,0,0,0,0,0,0],"sum_hessian":[3.095467E3,2.0216106E3,1.0738564E3,1.1251952E3,8.9641547E2,4.4093082E1,1.0297633E3,7.8971E2,3.354852E2,5.636264E2,3.3278903E2,6.4822E0,3.761088E1,7.108634E2,3.188999E2,2.1107277E2,5.786372E2,5.5357166E1,2.8012805E2,8.2496E1,4.811304E2,2.1204836E2,1.2074067E2,1.6677826E1,2.0933054E1,2.0647768E2,5.043857E2,7.358755E1,2.4531236E2],"tree_param":{"num_deleted":"0","num_feature":"6","num_nodes":"29","size_leaf_vector":"1"}},{"base_weights":[-1.5078182E-2,6.132193E-2,-9.260556E-2,1.215638E-1,-2.142859E-1,-3.7375483E-1,-6.84026E-2,9.449982E-2,3.2960597E-1,-5.590113E-1,3.7094895E-3,-6.187714E-1,1.0635286E-2,-4.9423385E-2,-4.9331236E-1,-3.6321464E-3,1.6923699E-3,4.093415E-3,1.420511E-2,-3.988247E-3,-1.3064137E-2,-7.34712E-4,9.276969E-3,6.1876007E-4,-1.0002537E-2,3.0906117E-3,-1.0735304E-2,-1.1534326E-2,-6.185812E-4,-1.115987E-2,-3.7586894E-3],"categories":[],"categories_nodes":[],"categories_segments":[],"categories_sizes":[],"default_left":[0,0,0,0,0,0,0,0,0,0,0,0,0,0,0,0,0,0,0,0,0,0,0,0,0,0,0,0,0,0,0],"id":12,"left_children":[1,3,5,7,9,11,13,15,17,19,21,23,25,27,29,-1,-1,-1,-1,-1,-1,-1,-1,-1,-1,-1,-1,-1,-1,-1,-1],"loss_changes":[1.8297441E1,2.5860744E1,1.0407274E1,7.162016E0,2.1003572E1,1.1430918E1,1.1369833E1,7.00984E0,4.876747E0,9.66824E0,5.6079984E0,2.3781414E0,6.988822E0,7.9397516E0,3.482664E0,0E0,0E0,0E0,0E0,0E0,0E0,0E0,0E0,0E0,0E0,0E0,0E0,0E0,0E0,0E0,0E0],"parents":[2147483647,0,0,1,1,2,2,3,3,4,4,5,5,6,6,7,7,8,8,9,9,10,10,11,11,12,12,13,13,14,14],"right_children":[2,4,6,8,10,12,14,16,18,20,22,24,26,28,30,-1,-1,-1,-1,-1,-1,-1,-1,-1,-1,-1,-1,-1,-1,-1,-1],"split_conditions":[2.3445897E-3,7.378367E1,3.0827057E1,1.034731E0,-1.37110315E-2,2E0,1.410628E-1,3.4544975E-1,6.911443E1,-3.8518742E-1,1.572159E-3,-1.150225E0,8.638438E-1,-1.9678241E0,8.192468E1,-3.6321464E-3,1.6923699E-3,4.093415E-3,1.420511E-2,-3.988247E-3,-1.3064137E-2,-7.34712E-4,9.276969E-3,6.1876007E-4,-1.0002537E-2,3.0906117E-3,-1.0735304E-2,-1.1534326E-2,-6.185812E-4,-1.115987E-2,-3.7586894E-3],"split_indices":[2,4,4,0,2,5,2,4,4,0,2,0,0,0,4,0,0,0,0,0,0,0,0,0,0,0,0,0,0,0,0],"split_type":[0,0,0,0,0,0,0,0,0,0,0,0,0,0,0,0,0,0,0,0,0,0,0,0,0,0,0,0,0,0,0],"sum_hessian":[3.0872078E3,1.5550135E3,1.5321943E3,1.2765471E3,2.784665E2,1.2030069E2,1.4118936E3,1.1308856E3,1.4566145E2,1.0727059E2,1.7119589E2,7.3097435E1,4.7203255E1,1.3525944E3,5.9299282E1,5.7750263E1,1.0731354E3,1.3472797E2,1.0933483E1,5.6257057E1,5.101354E1,1.5852881E2,1.2667084E1,4.9714236E0,6.8126015E1,3.776067E1,9.442586E0,1.4167233E1,1.3384271E3,2.8156263E1,3.1143019E1],"tree_param":{"num_deleted":"0","num_feature":"6","num_nodes":"31","size_leaf_vector":"1"}},{"base_weights":[-4.4983425E-3,6.774013E-2,-8.643595E-2,1.406653E-1,-1.3875905E-1,-1.988344E-1,5.9472937E-3,6.396017E-2,2.392455E-1,1.4250864E-1,-2.6811376E-1,-1.2926236E-1,-3.4406346E-1,3.6821585E-2,-3.7197748E-1,2.3440016E-3,-7.8937656E-4,4.3123993E-3,-1.2049986E-3,1.5328586E-2,1.65137E-3,-5.9563955E-3,-2.9606395E-4,-3.6321364E-3,9.7585074E-4,-4.011412E-3,-1.1067399E-2,-2.096422E-3,1.5068143E-3,-7.6274746E-3,2.3054285E-3],"categories":[],"categories_nodes":[],"categories_segments":[],"categories_sizes":[],"default_left":[0,0,0,0,0,0,0,0,0,0,0,0,0,0,0,0,0,0,0,0,0,0,0,0,0,0,0,0,0,0,0],"id":13,"left_children":[1,3,5,7,9,11,13,15,17,19,21,23,25,27,29,-1,-1,-1,-1,-1,-1,-1,-1,-1,-1,-1,-1,-1,-1,-1,-1],"loss_changes":[1.8331839E1,2.4806606E1,1.5069063E1,9.186548E0,1.5686025E1,6.570198E0,9.318328E0,7.388064E0,8.228455E0,3.7684748E0,9.440821E0,9.759779E0,6.18314E0,8.307914E0,4.4067535E0,0E0,0E0,0E0,0E0,0E0,0E0,0E0,0E0,0E0,0E0,0E0,0E0,0E0,0E0,0E0,0E0],"parents":[2147483647,0,0,1,1,2,2,3,3,4,4,5,5,6,6,7,7,8,8,9,9,10,10,11,11,12,12,13,13,14,14],"right_children":[2,4,6,8,10,12,14,16,18,20,22,24,26,28,30,-1,-1,-1,-1,-1,-1,-1,-1,-1,-1,-1,-1,-1,-1,-1,-1],"split_conditions":[3.9024495E-3,6.6664665E1,2.8119083E-2,4.459768E1,1.6155485E-2,3E0,1.410628E-1,-1.7445408E-2,7.528519E-2,-2.310346E-2,-8.172605E-3,7.30557E1,9.428358E1,4.6438175E1,9.876001E1,2.3440016E-3,-7.8937656E-4,4.3123993E-3,-1.2049986E-3,1.5328586E-2,1.65137E-3,-5.9563955E-3,-2.9606395E-4,-3.6321364E-3,9.7585074E-4,-4.011412E-3,-1.1067399E-2,-2.096422E-3,1.5068143E-3,-7.6274746E-3,2.3054285E-3],"split_indices":[2,4,3,4,3,5,2,2,3,2,2,4,4,4,4,0,0,0,0,0,0,0,0,0,0,0,0,0,0,0,0],"split_type":[0,0,0,0,0,0,0,0,0,0,0,0,0,0,0,0,0,0,0,0,0,0,0,0,0,0,0,0,0,0,0],"sum_hessian":[3.0951038E3,1.6449996E3,1.450104E3,1.2159174E3,4.2908234E2,6.5366614E2,7.9643787E2,6.847574E2,5.3116E2,1.3513794E2,2.9394437E2,4.4322772E2,2.1043842E2,7.371218E2,5.9316067E1,3.8198203E2,3.0277536E2,4.6157495E2,6.9585E1,3.7193089E0,1.3141864E2,1.930807E2,1.0086367E2,2.8020837E2,1.6301935E2,1.7756003E2,3.2878384E1,1.9494527E2,5.421766E2,4.7113132E1,1.2202934E1],"tree_param":{"num_deleted":"0","num_feature":"6","num_nodes":"31","size_leaf_vector":"1"}},{"base_weights":[-1.9140997E-3,4.7093097E-2,-9.553854E-2,1.8124801E-1,-3.889537E-2,-4.3333116E-1,-3.3029296E-2,3.1677E-1,1.05133966E-1,-2.8311926E-1,-2.159177E-3,-2.6113904E-1,-7.2898805E-1,-1.1683576E-1,1.1925366E-1,9.779594E-4,7.9368735E-3,3.8770333E-4,3.6967888E-3,-5.599979E-3,1.2745075E-3,4.310909E-4,-3.2738196E-3,-4.761514E-3,4.9593593E-3,-1.1209216E-3,-1.3797054E-2,-1.2878943E-3,-1.029082E-2,1.4779414E-2,1.503852E-3],"categories":[],"categories_nodes":[],"categories_segments":[],"categories_sizes":[],"default_left":[0,0,0,0,0,0,0,0,0,0,0,0,0,0,0,0,0,0,0,0,0,0,0,0,0,0,0,0,0,0,0],"id":14,"left_children":[1,3,5,7,9,11,13,15,17,19,21,23,25,27,29,-1,-1,-1,-1,-1,-1,-1,-1,-1,-1,-1,-1,-1,-1,-1,-1],"loss_changes":[1.4144055E1,2.3349724E1,2.235025E1,8.121435E0,1.1070135E1,8.225658E0,1.1434381E1,1.5128216E1,5.6826773E0,5.388957E0,7.1748013E0,3.6370864E0,7.4574547E0,1.0127373E1,5.135431E0,0E0,0E0,0E0,0E0,0E0,0E0,0E0,0E0,0E0,0E0,0E0,0E0,0E0,0E0,0E0,0E0],"parents":[2147483647,0,0,1,1,2,2,3,3,4,4,5,5,6,6,7,7,8,8,9,9,10,10,11,11,12,12,13,13,14,14],"right_children":[2,4,6,8,10,12,14,16,18,20,22,24,26,28,30,-1,-1,-1,-1,-1,-1,-1,-1,-1,-1,-1,-1,-1,-1,-1,-1],"split_conditions":[6.746984E1,-9.409965E-3,-1.25591345E-2,2.4786567E-2,2.7083319E1,8.03296E1,4.2195696E-1,-4.1460615E-1,4.816628E1,5.0909985E-2,6.704681E-2,1.2829276E0,-7.071067E-1,1.290964E-1,-1.006571E-2,9.779594E-4,7.9368735E-3,3.8770333E-4,3.6967888E-3,-5.599979E-3,1.2745075E-3,4.310909E-4,-3.2738196E-3,-4.761514E-3,4.9593593E-3,-1.1209216E-3,-1.3797054E-2,-1.2878943E-3,-1.029082E-2,1.4779414E-2,1.503852E-3],"split_indices":[4,2,2,3,4,4,0,0,4,3,3,0,0,2,2,0,0,0,0,0,0,0,0,0,0,0,0,0,0,0,0],"split_type":[0,0,0,0,0,0,0,0,0,0,0,0,0,0,0,0,0,0,0,0,0,0,0,0,0,0,0,0,0,0,0],"sum_hessian":[3.0806738E3,2.0225028E3,1.0581709E3,7.895611E2,1.2329417E3,1.643126E2,8.9385834E2,2.8282535E2,5.0673578E2,1.603331E2,1.0726086E3,1.0502737E2,5.9285236E1,5.7670874E2,3.1714957E2,1.3005673E2,1.5276863E2,3.253695E2,1.8136624E2,1.287613E2,3.1571793E1,9.391855E2,1.3342313E2,9.63272E1,8.700158E0,1.3700657E1,4.558458E1,5.480362E2,2.8672558E1,5.715631E0,3.1143393E2],"tree_param":{"num_deleted":"0","num_feature":"6","num_nodes":"31","size_leaf_vector":"1"}},{"base_weights":[-1.5143121E-2,3.2596137E-2,-1.1530169E-1,1.3177596E-1,-8.697492E-2,-1.3939855E-2,-3.357855E-1,1.4976895E-1,-3.207901E-1,-2.0967107E-1,1.2138774E-1,-5.6938213E-1,9.4630614E-2,-1.399936E-1,-4.563306E-1,-3.4362313E-3,2.5957862E-3,-3.7634515E-4,-1.387746E-2,-2.160409E-3,-6.815094E-3,3.4864617E-3,-3.5799043E-3,-1.521014E-2,-5.9092245E-3,-1.2951216E-3,2.8449704E-3,-4.870682E-3,2.5402706E-3,1.704375E-3,-7.797108E-3],"categories":[],"categories_nodes":[],"categories_segments":[],"categories_sizes":[],"default_left":[0,0,0,0,0,0,0,0,0,0,0,0,0,0,0,0,0,0,0,0,0,0,0,0,0,0,0,0,0,0,0],"id":15,"left_children":[1,3,5,7,9,11,13,15,17,19,21,23,25,27,29,-1,-1,-1,-1,-1,-1,-1,-1,-1,-1,-1,-1,-1,-1,-1,-1],"loss_changes":[1.471967E1,2.4737898E1,2.2202057E1,9.331835E0,2.4208616E1,4.1166813E1,7.3210144E0,9.717823E0,7.8245554E0,9.502459E0,1.4097302E1,8.306702E0,9.839144E0,6.950657E0,7.04953E0,0E0,0E0,0E0,0E0,0E0,0E0,0E0,0E0,0E0,0E0,0E0,0E0,0E0,0E0,0E0,0E0],"parents":[2147483647,0,0,1,1,2,2,3,3,4,4,5,5,6,6,7,7,8,8,9,9,10,10,11,11,12,12,13,13,14,14],"right_children":[2,4,6,8,10,12,14,16,18,20,22,24,26,28,30,-1,-1,-1,-1,-1,-1,-1,-1,-1,-1,-1,-1,-1,-1,-1,-1],"split_conditions":[6.911443E1,9.404431E-4,3E0,3.6950523E-1,2E0,-1.37110315E-2,8.146335E1,3.4544975E-1,5E1,7.88466E-2,7.185651E-2,-5.0929524E-2,7.9173584E1,4E0,-9.409965E-3,-3.4362313E-3,2.5957862E-3,-3.7634515E-4,-1.387746E-2,-2.160409E-3,-6.815094E-3,3.4864617E-3,-3.5799043E-3,-1.521014E-2,-5.9092245E-3,-1.2951216E-3,2.8449704E-3,-4.870682E-3,2.5402706E-3,1.704375E-3,-7.797108E-3],"split_indices":[4,2,5,1,5,2,4,4,4,1,1,2,4,5,2,0,0,0,0,0,0,0,0,0,0,0,0,0,0,0,0],"split_type":[0,0,0,0,0,0,0,0,0,0,0,0,0,0,0,0,0,0,0,0,0,0,0,0,0,0,0,0,0,0,0],"sum_hessian":[3.0766794E3,2.084029E3,9.926504E2,1.1390919E3,9.449372E2,6.8075415E2,3.118962E2,1.0961794E3,4.2912533E1,5.947231E2,3.5021408E2,1.1061382E2,5.701403E2,1.19676476E2,1.9221974E2,6.295669E1,1.0332228E3,2.9513874E1,1.3398662E1,4.7016733E2,1.2455576E2,2.6793442E2,8.227968E1,2.9943548E1,8.067027E1,1.963415E2,3.7379883E2,7.490119E1,4.4775284E1,1.9183283E1,1.7303645E2],"tree_param":{"num_deleted":"0","num_feature":"6","num_nodes":"31","size_leaf_vector":"1"}},{"base_weights":[-1.0107568E-3,4.703862E-2,-1.1816004E-1,1.7735162E-1,-3.9029576E-2,-5.405701E-1,-4.655453E-2,3.1127194E-1,9.824764E-2,-3.3133543E-1,-1.1920604E-2,-6.149698E-1,-7.0361875E-2,2.9101098E-1,-1.0517583E-1,2.2827466E-3,7.763941E-3,1.9119678E-3,-5.614026E-3,-3.6509943E-3,-1.2075595E-2,1.5037707E-3,-7.5392635E-4,-1.6714405E-2,-7.720219E-3,6.0706125E-3,-6.230944E-3,1.8131984E-3,8.238112E-3,-1.167388E-3,-9.040705E-3],"categories":[],"categories_nodes":[],"categories_segments":[],"categories_sizes":[],"default_left":[0,0,0,0,0,0,0,0,0,0,0,0,0,0,0,0,0,0,0,0,0,0,0,0,0,0,0,0,0,0,0],"id":16,"left_children":[1,3,5,7,9,11,13,15,17,19,21,23,25,27,29,-1,-1,-1,-1,-1,-1,-1,-1,-1,-1,-1,-1,-1,-1,-1,-1],"loss_changes":[1.7450935E1,2.4664923E1,2.724904E1,9.235264E0,1.0494254E1,4.5257797E0,1.53095875E1,1.0567118E1,7.6590333E0,4.486267E0,5.2238054E0,5.0668373E0,3.2778351E0,4.9637327E0,8.915121E0,0E0,0E0,0E0,0E0,0E0,0E0,0E0,0E0,0E0,0E0,0E0,0E0,0E0,0E0,0E0,0E0],"parents":[2147483647,0,0,1,1,2,2,3,3,4,4,5,5,6,6,7,7,8,8,9,9,10,10,11,11,12,12,13,13,14,14],"right_children":[2,4,6,8,10,12,14,16,18,20,22,24,26,28,30,-1,-1,-1,-1,-1,-1,-1,-1,-1,-1,-1,-1,-1,-1,-1,-1],"split_conditions":[7.1609146E1,-8.172605E-3,-1.37110315E-2,2.4786567E-2,2.3142231E1,1.9219126E-1,9.298475E-4,1.6949588E-2,6.746984E1,2.0987654E1,1.572159E-3,-5.8392297E-2,2.7001166E-1,3.57042E-2,1.410628E-1,2.2827466E-3,7.763941E-3,1.9119678E-3,-5.614026E-3,-3.6509943E-3,-1.2075595E-2,1.5037707E-3,-7.5392635E-4,-1.6714405E-2,-7.720219E-3,6.0706125E-3,-6.230944E-3,1.8131984E-3,8.238112E-3,-1.167388E-3,-9.040705E-3],"split_indices":[4,2,2,3,4,3,1,3,4,4,2,2,3,3,2,0,0,0,0,0,0,0,0,0,0,0,0,0,0,0,0],"split_type":[0,0,0,0,0,0,0,0,0,0,0,0,0,0,0,0,0,0,0,0,0,0,0,0,0,0,0,0,0,0,0],"sum_hessian":[3.0982244E3,2.197505E3,9.0071936E2,8.7366187E2,1.323843E3,1.2960625E2,7.7111316E2,3.233338E2,5.50328E2,1.1140308E2,1.21244E3,1.11634735E2,1.7971516E1,1.13510254E2,6.576029E2,1.8354596E2,1.3978786E2,5.189691E2,3.135894E1,9.523754E1,1.6165543E1,3.084411E2,9.0399884E2,1.6980429E1,9.465431E1,7.4882207E0,1.04832945E1,6.9309166E1,4.4201088E1,6.2443384E2,3.316907E1],"tree_param":{"num_deleted":"0","num_feature":"6","num_nodes":"31","size_leaf_vector":"1"}},{"base_weights":[-9.341756E-3,4.8993226E-2,-1.0086436E-1,1.8094735E-1,-4.444229E-2,-6.3678145E-1,-7.583807E-2,3.2353058E-1,9.2983864E-2,1.3947973E-3,-2.2725667E-1,-2.2570012E-2,-4.4598362E-1,-4.9237426E-2,-5.827529E-1,9.899095E-3,2.3180428E-3,-3.1157918E-3,1.9000694E-3,-4.6056416E-3,5.4337224E-4,-3.6543605E-4,-7.3097977E-3,1.5907824E-2,-8.372603E-3,6.7240247E-3,-9.463581E-4,-1.6970577E-2,-3.537557E-3],"categories":[],"categories_nodes":[],"categories_segments":[],"categories_sizes":[],"default_left":[0,0,0,0,0,0,0,0,0,0,0,0,0,0,0,0,0,0,0,0,0,0,0,0,0,0,0,0,0],"id":17,"left_children":[1,3,5,7,9,11,13,15,17,19,21,-1,23,25,27,-1,-1,-1,-1,-1,-1,-1,-1,-1,-1,-1,-1,-1,-1],"loss_changes":[1.6523188E1,2.3312866E1,1.6109015E1,9.800268E0,9.280192E0,8.206522E0,1.5506211E1,1.6876366E1,4.950893E0,9.533807E0,1.1702481E1,0E0,8.260296E0,7.580039E0,1.0648165E1,0E0,0E0,0E0,0E0,0E0,0E0,0E0,0E0,0E0,0E0,0E0,0E0,0E0,0E0],"parents":[2147483647,0,0,1,1,2,2,3,3,4,4,5,5,6,6,7,7,8,8,9,9,10,10,12,12,13,13,14,14],"right_children":[2,4,6,8,10,12,14,16,18,20,22,-1,24,26,28,-1,-1,-1,-1,-1,-1,-1,-1,-1,-1,-1,-1,-1,-1],"split_conditions":[6.403663E1,-8.172605E-3,-5.0929524E-2,2.4786567E-2,7.88466E-2,-2.7219752E-2,1.290964E-1,-2.5419084E-2,1.0970438E1,2.3142231E1,1.6271543E-2,-2.2570012E-2,1.555167E-3,-3.807816E-1,8.192468E1,9.899095E-3,2.3180428E-3,-3.1157918E-3,1.9000694E-3,-4.6056416E-3,5.4337224E-4,-3.6543605E-4,-7.3097977E-3,1.5907824E-2,-8.372603E-3,6.7240247E-3,-9.463581E-4,-1.6970577E-2,-3.537557E-3],"split_indices":[4,2,2,3,1,1,2,2,4,4,2,0,1,1,4,0,0,0,0,0,0,0,0,0,0,0,0,0,0],"split_type":[0,0,0,0,0,0,0,0,0,0,0,0,0,0,0,0,0,0,0,0,0,0,0,0,0,0,0,0,0],"sum_hessian":[3.0929016E3,1.8892134E3,1.2036884E3,7.827871E2,1.1064261E3,5.2611553E1,1.1510768E3,2.9764517E2,4.8514197E2,8.8541766E2,2.2100856E2,8.240705E0,4.437085E1,1.0947275E3,5.6349316E1,9.855379E1,1.9909138E2,4.8354088E1,4.3678787E2,8.904686E1,7.963708E2,1.2476441E2,9.624415E1,2.4894314E0,4.1881416E1,2.8807497E1,1.06592E3,2.0952854E1,3.539646E1],"tree_param":{"num_deleted":"0","num_feature":"6","num_nodes":"29","size_leaf_vector":"1"}},{"base_weights":[-8.872515E-3,1.6616337E-2,-1.862811E-1,2.605905E-1,-1.5354414E-2,-1.5483828E-1,-6.702422E-1,5.393676E-1,1.2305779E-1,1.10585995E-1,-4.8238367E-2,-6.7204803E-1,-1.3665651E-1,1.22285215E-2,-8.2711583E-1,-6.2163244E-3,1.0192786E-2,3.220546E-3,-2.7265311E-3,-1.1528255E-2,1.8905351E-3,-9.99784E-4,1.3662592E-3,1.512634E-3,-1.488385E-2,-1.1566813E-3,-4.58508E-3,-2.125708E-2,-8.682792E-3],"categories":[],"categories_nodes":[],"categories_segments":[],"categories_sizes":[],"default_left":[0,0,0,0,0,0,0,0,0,0,0,0,0,0,0,0,0,0,0,0,0,0,0,0,0,0,0,0,0],"id":18,"left_children":[1,3,5,7,9,11,13,15,17,19,21,23,25,-1,27,-1,-1,-1,-1,-1,-1,-1,-1,-1,-1,-1,-1,-1,-1],"loss_changes":[1.3990898E1,2.1108093E1,5.810772E0,1.195463E1,9.916211E0,3.3524542E0,6.1298876E0,1.408786E1,5.940395E0,6.830842E0,4.876157E0,3.1152053E0,3.549963E0,0E0,2.354148E0,0E0,0E0,0E0,0E0,0E0,0E0,0E0,0E0,0E0,0E0,0E0,0E0,0E0,0E0],"parents":[2147483647,0,0,1,1,2,2,3,3,4,4,5,5,6,6,7,7,8,8,9,9,10,10,11,11,12,12,14,14],"right_children":[2,4,6,8,10,12,14,16,18,20,22,24,26,-1,28,-1,-1,-1,-1,-1,-1,-1,-1,-1,-1,-1,-1,-1,-1],"split_conditions":[7.92005E-2,-3.239165E-2,3.6950523E-1,3.038249E-2,4.2400765E-4,8.06258E-2,8.4021874E-2,-1.2841933E0,-4.0828437E-2,-7.851432E-1,5.0909985E-2,-2.8607713E-2,1.6622986E-1,1.22285215E-2,-5.4820407E-2,-6.2163244E-3,1.0192786E-2,3.220546E-3,-2.7265311E-3,-1.1528255E-2,1.8905351E-3,-9.99784E-4,1.3662592E-3,1.512634E-3,-1.488385E-2,-1.1566813E-3,-4.58508E-3,-2.125708E-2,-8.682792E-3],"split_indices":[3,2,1,3,1,3,3,0,2,1,3,2,3,0,2,0,0,0,0,0,0,0,0,0,0,0,0,0,0],"split_type":[0,0,0,0,0,0,0,0,0,0,0,0,0,0,0,0,0,0,0,0,0,0,0,0,0,0,0,0,0],"sum_hessian":[3.092318E3,2.7046401E3,3.8767786E2,3.125289E2,2.3921113E3,3.6526654E2,2.241133E1,1.0228226E2,2.1024664E2,4.947879E2,1.8973234E3,1.118308E1,3.5408344E2,1.7398149E0,2.0671515E1,1.2853293E1,8.942897E1,1.61875E2,4.8371635E1,7.7032423E0,4.8708466E2,1.6762933E3,2.210301E2,3.476616E0,7.7064633E0,2.6291452E2,9.116893E1,4.727621E0,1.5943893E1],"tree_param":{"num_deleted":"0","num_feature":"6","num_nodes":"29","size_leaf_vector":"1"}},{"base_weights":[-1.1688652E-2,1.5465662E-2,-1.9669768E-1,1.9554296E-1,-1.8375427E-2,-1.53854E-1,-6.5925604E-1,4.808667E-1,1.733111E-2,-6.853306E-2,6.933148E-2,-2.0904751E-1,1.8959479E-1,-5.3275216E-1,-2.2669116E-2,-5.0989576E-3,9.312031E-3,1.8825638E-3,-2.2059577E-3,-6.0225837E-5,-3.4023318E-3,2.343281E-3,-7.090188E-4,6.652361E-3,-3.528917E-3,5.5096243E-3,-1.1623983E-2,-1.2382929E-2,1.565289E-3],"categories":[],"categories_nodes":[],"categories_segments":[],"categories_sizes":[],"default_left":[0,0,0,0,0,0,0,0,0,0,0,0,0,0,0,0,0,0,0,0,0,0,0,0,0,0,0,0,0],"id":19,"left_children":[1,3,5,7,9,11,13,15,17,19,21,23,25,27,-1,-1,-1,-1,-1,-1,-1,-1,-1,-1,-1,-1,-1,-1,-1],"loss_changes":[1.5511765E1,1.6414013E1,7.730096E0,2.1657461E1,9.981135E0,6.9203873E0,2.772789E0,1.9022285E1,4.700952E0,1.4738045E1,8.371128E0,5.4617796E0,8.988934E0,5.7656546E0,0E0,0E0,0E0,0E0,0E0,0E0,0E0,0E0,0E0,0E0,0E0,0E0,0E0,0E0,0E0],"parents":[2147483647,0,0,1,1,2,2,3,3,4,4,5,5,6,6,7,7,8,8,9,9,10,10,11,11,12,12,13,13],"right_children":[2,4,6,8,10,12,14,16,18,20,22,24,26,28,-1,-1,-1,-1,-1,-1,-1,-1,-1,-1,-1,-1,-1,-1,-1],"split_conditions":[7.791725E-2,-2.5419084E-2,1.7857143E-1,3.038249E-2,2.9666109E-2,9.113603E-2,2.3677088E-1,-1.2841933E0,-4.0828437E-2,1.2301698E-2,2.1002581E-2,-1.4958555E0,1.9219126E-1,5.929042E-1,-2.2669116E-2,-5.0989576E-3,9.312031E-3,1.8825638E-3,-2.2059577E-3,-6.0225837E-5,-3.4023318E-3,2.343281E-3,-7.090188E-4,6.652361E-3,-3.528917E-3,5.5096243E-3,-1.1623983E-2,-1.2382929E-2,1.565289E-3],"split_indices":[3,2,2,3,3,2,1,0,2,2,1,0,3,0,0,0,0,0,0,0,0,0,0,0,0,0,0,0,0],"split_type":[0,0,0,0,0,0,0,0,0,0,0,0,0,0,0,0,0,0,0,0,0,0,0,0,0,0,0,0,0],"sum_hessian":[3.0860542E3,2.691876E3,3.9417807E2,4.250888E2,2.266787E3,3.6198267E2,3.2195423E1,1.627776E2,2.6231122E2,1.4422278E3,8.245594E2,3.1220197E2,4.9780704E1,2.9448347E1,2.7470765E0,2.3501175E1,1.3927643E2,1.5835136E2,1.03959854E2,1.0253319E3,4.168959E2,4.7228412E2,3.522753E2,1.14425745E1,3.0075937E2,4.255851E1,7.222196E0,1.9973795E1,9.474551E0],"tree_param":{"num_deleted":"0","num_feature":"6","num_nodes":"29","size_leaf_vector":"1"}},{"base_weights":[8.313547E-4,9.208589E-2,-4.203771E-2,3.0664474E-1,-1.7694509E-2,-2.9890062E-2,-4.277702E-1,6.135045E-1,1.807617E-1,4.2221323E-2,-1.6755313E-1,-9.4188325E-2,5.6616966E-2,-7.132742E-1,-3.0782768E-1,4.95741E-3,1.1081894E-2,-1.3085508E-2,3.068722E-3,3.546511E-3,-1.2817837E-3,-7.491442E-3,-9.1776403E-4,-5.2976416E-4,-2.986614E-3,3.603698E-3,-6.480101E-7,-4.8787887E-3,-1.6789543E-2,-1.6453245E-3,-1.1498542E-2],"categories":[],"categories_nodes":[],"categories_segments":[],"categories_sizes":[],"default_left":[0,0,0,0,0,0,0,0,0,0,0,0,0,0,0,0,0,0,0,0,0,0,0,0,0,0,0,0,0,0,0],"id":20,"left_children":[1,3,5,7,9,11,13,15,17,19,21,23,25,27,29,-1,-1,-1,-1,-1,-1,-1,-1,-1,-1,-1,-1,-1,-1,-1,-1],"loss_changes":[1.2091191E1,2.3274517E1,9.840952E0,1.2807587E1,5.8834057E0,1.1351161E1,1.976471E0,3.1905098E0,6.162897E0,1.1632873E1,6.5753136E0,7.2225685E0,9.055261E0,2.5051928E0,4.180431E0,0E0,0E0,0E0,0E0,0E0,0E0,0E0,0E0,0E0,0E0,0E0,0E0,0E0,0E0,0E0,0E0],"parents":[2147483647,0,0,1,1,2,2,3,3,4,4,5,5,6,6,7,7,8,8,9,9,10,10,11,11,12,12,13,13,14,14],"right_children":[2,4,6,8,10,12,14,16,18,20,22,24,26,28,30,-1,-1,-1,-1,-1,-1,-1,-1,-1,-1,-1,-1,-1,-1,-1,-1],"split_conditions":[-9.409965E-3,2.4786567E-2,1.410628E-1,-2.6680801E-2,7.414505E-2,2.9424723E-2,9.0645604E-2,-4.0828437E-2,-4.1341203E-1,-3.9840452E-2,-1.5744166E-2,1.1985268E-2,4.2400765E-4,7.414505E-2,2.0951822E-1,4.95741E-3,1.1081894E-2,-1.3085508E-2,3.068722E-3,3.546511E-3,-1.2817837E-3,-7.491442E-3,-9.1776403E-4,-5.2976416E-4,-2.986614E-3,3.603698E-3,-6.480101E-7,-4.8787887E-3,-1.6789543E-2,-1.6453245E-3,-1.1498542E-2],"split_indices":[2,3,2,2,3,3,3,2,1,2,1,2,1,3,3,0,0,0,0,0,0,0,0,0,0,0,0,0,0,0,0],"split_type":[0,0,0,0,0,0,0,0,0,0,0,0,0,0,0,0,0,0,0,0,0,0,0,0,0,0,0,0,0,0,0],"sum_hessian":[3.0888083E3,9.8688904E2,2.1019194E3,3.334293E2,6.534597E2,2.0387905E3,6.3128944E1,9.586635E1,2.3756296E2,4.673315E2,1.8612822E2,1.1694684E3,8.693221E2,1.7211922E1,4.5917023E1,3.0533323E1,6.533302E1,4.4664655E0,2.330965E2,1.8502533E2,2.8230618E2,4.4279293E1,1.4184894E2,7.4998486E2,4.1948355E2,2.0422157E2,6.651005E2,9.722074E0,7.4898477E0,3.2932117E1,1.2984906E1],"tree_param":{"num_deleted":"0","num_feature":"6","num_nodes":"31","size_leaf_vector":"1"}},{"base_weights":[-5.9169475E-3,4.5995217E-2,-7.756109E-2,5.859987E-2,-3.2523125E-1,1.8829122E-2,-1.735095E-1,6.6252267E-3,1.43504E-1,-4.538255E-1,-5.820369E-2,-6.363929E-1,3.5230696E-2,-2.3800476E-1,-1.2584909E-2,-4.195201E-3,2.6764965E-4,-1.4900026E-3,2.5600612E-3,-4.85945E-3,-1.3693469E-2,2.1474832E-3,-8.097144E-3,-1.8736207E-3,-1.5300926E-2,1.2896725E-2,2.5085395E-4,-2.0280224E-3,-4.704187E-3,1.9732413E-3,-3.8096937E-3],"categories":[],"categories_nodes":[],"categories_segments":[],"categories_sizes":[],"default_left":[0,0,0,0,0,0,0,0,0,0,0,0,0,0,0,0,0,0,0,0,0,0,0,0,0,0,0,0,0,0,0],"id":21,"left_children":[1,3,5,7,9,11,13,15,17,19,21,23,25,27,29,-1,-1,-1,-1,-1,-1,-1,-1,-1,-1,-1,-1,-1,-1,-1,-1],"loss_changes":[1.15151825E1,8.419924E0,1.2033824E1,7.6653347E0,2.0033488E0,7.0057683E0,6.764015E0,3.4693878E0,4.3684816E0,2.074009E0,2.051879E0,2.9970222E0,9.674125E0,3.5750122E0,6.5606356E0,0E0,0E0,0E0,0E0,0E0,0E0,0E0,0E0,0E0,0E0,0E0,0E0,0E0,0E0,0E0,0E0],"parents":[2147483647,0,0,1,1,2,2,3,3,4,4,5,5,6,6,7,7,8,8,9,9,10,10,11,11,12,12,13,13,14,14],"right_children":[2,4,6,8,10,12,14,16,18,20,22,24,26,28,30,-1,-1,-1,-1,-1,-1,-1,-1,-1,-1,-1,-1,-1,-1,-1,-1],"split_conditions":[7.326486E-3,4.279981E-1,1.884144E-2,5.6499843E-2,6.4775187E-1,-1.859169E0,1.1219107E0,-4.364004E-1,-5.645789E-2,7.3063804E-4,1.7888544E0,-1.5339197E-1,-1.5706095E0,-6.940862E-2,3E0,-4.195201E-3,2.6764965E-4,-1.4900026E-3,2.5600612E-3,-4.85945E-3,-1.3693469E-2,2.1474832E-3,-8.097144E-3,-1.8736207E-3,-1.5300926E-2,1.2896725E-2,2.5085395E-4,-2.0280224E-3,-4.704187E-3,1.9732413E-3,-3.8096937E-3],"split_indices":[2,1,1,0,1,0,0,1,2,2,0,1,0,0,5,0,0,0,0,0,0,0,0,0,0,0,0,0,0,0,0],"split_type":[0,0,0,0,0,0,0,0,0,0,0,0,0,0,0,0,0,0,0,0,0,0,0,0,0,0,0,0,0,0,0],"sum_hessian":[3.0941838E3,1.7943705E3,1.2998134E3,1.7362595E3,5.8110947E1,6.488148E2,6.5099854E2,1.0776478E3,6.5861163E2,3.875021E1,1.9360739E1,1.4921443E1,6.338934E2,4.643983E2,1.8660025E2,3.973026E1,1.0379176E3,6.5999626E1,5.92612E2,3.1535229E1,7.2149796E0,1.4147933E1,5.2128057E0,6.9635754E0,7.957868E0,1.291756E1,6.2097577E2,1.9798619E2,2.664121E2,1.1712258E2,6.947766E1],"tree_param":{"num_deleted":"0","num_feature":"6","num_nodes":"31","size_leaf_vector":"1"}},{"base_weights":[-7.1384397E-4,4.437652E-2,-6.3654E-2,-5.47798E-3,1.6816267E-1,5.780997E-1,-7.9954475E-2,-3.0743864E-1,9.791988E-3,2.4768607E-1,-2.9072516E-2,7.39097E-1,-9.758273E-3,-1.4992728E-2,-2.2788505E-1,-1.0733437E-2,-2.3522987E-3,3.0319934E-4,-5.3234114E-3,5.2407286E-3,4.9182656E-4,-1.189777E-2,4.00102E-4,-9.66683E-3,1.2778297E-2,5.8489875E-4,-3.2162317E-3,-1.7015995E-3,-6.96153E-3],"categories":[],"categories_nodes":[],"categories_segments":[],"categories_sizes":[],"default_left":[0,0,0,0,0,0,0,0,0,0,0,0,0,0,0,0,0,0,0,0,0,0,0,0,0,0,0,0,0],"id":22,"left_children":[1,3,5,7,9,11,13,15,17,19,21,23,-1,25,27,-1,-1,-1,-1,-1,-1,-1,-1,-1,-1,-1,-1,-1,-1],"loss_changes":[8.759693E0,1.1098735E1,1.3522867E1,5.9186006E0,8.105988E0,6.817318E0,1.207859E1,3.685835E0,4.6520114E0,8.03274E0,6.3791027E0,5.041729E0,0E0,9.425279E0,1.0316656E1,0E0,0E0,0E0,0E0,0E0,0E0,0E0,0E0,0E0,0E0,0E0,0E0,0E0,0E0],"parents":[2147483647,0,0,1,1,2,2,3,3,4,4,5,5,6,6,7,7,8,8,9,9,10,10,11,11,13,13,14,14],"right_children":[2,4,6,8,10,12,14,16,18,20,22,24,-1,26,28,-1,-1,-1,-1,-1,-1,-1,-1,-1,-1,-1,-1,-1,-1],"split_conditions":[6.2055336E1,5.0694946E1,-3.807816E-1,6.7196954E-3,5.5594716E-2,1.0909886E-1,3E0,1.5301225E1,5E1,5.822369E1,5.9238553E-2,5.4437383E-3,-9.758273E-3,6.2611185E-2,8.8883575E1,-1.0733437E-2,-2.3522987E-3,3.0319934E-4,-5.3234114E-3,5.2407286E-3,4.9182656E-4,-1.189777E-2,4.00102E-4,-9.66683E-3,1.2778297E-2,5.8489875E-4,-3.2162317E-3,-1.7015995E-3,-6.96153E-3],"split_indices":[4,4,1,3,1,3,5,4,4,4,1,3,0,3,4,0,0,0,0,0,0,0,0,0,0,0,0,0,0],"split_type":[0,0,0,0,0,0,0,0,0,0,0,0,0,0,0,0,0,0,0,0,0,0,0,0,0,0,0,0,0],"sum_hessian":[3.0845837E3,1.7972953E3,1.2872885E3,1.2819497E3,5.153456E2,3.1033333E1,1.2562551E3,6.0785942E1,1.2211637E3,3.6708466E2,1.4826093E2,2.7790262E1,3.2430704E0,8.73688E2,3.8256708E2,1.5374804E1,4.5411137E1,1.1881555E3,3.300826E1,2.487453E2,1.1833936E2,9.181481E0,1.3907945E2,1.7394317E0,2.605083E1,6.8819135E2,1.8549667E2,2.5870633E2,1.2386077E2],"tree_param":{"num_deleted":"0","num_feature":"6","num_nodes":"29","size_leaf_vector":"1"}},{"base_weights":[4.7512795E-3,2.8780682E-2,-1.644267E-1,1.5093611E-1,-2.8410796E-2,-3.2830772E-1,-1.0198305E-1,2.9300705E-1,4.7300357E-2,-9.03459E-2,5.294357E-2,-1.2244122E-1,-6.128873E-1,-4.7936462E-2,-4.6980262E-1,3.4784724E-4,6.5410254E-3,2.9388918E-3,-5.94357E-4,-2.4588275E-4,-3.356255E-3,1.006293E-3,-7.5884457E-3,6.2882667E-3,-5.011632E-3,-1.0393873E-2,-1.762942E-4,2.1921462E-4,-5.522565E-3,-9.745054E-3,-2.1061676E-3],"categories":[],"categories_nodes":[],"categories_segments":[],"categories_sizes":[],"default_left":[0,0,0,0,0,0,0,0,0,0,0,0,0,0,0,0,0,0,0,0,0,0,0,0,0,0,0,0,0,0,0],"id":23,"left_children":[1,3,5,7,9,11,13,15,17,19,21,23,25,27,29,-1,-1,-1,-1,-1,-1,-1,-1,-1,-1,-1,-1,-1,-1,-1,-1],"loss_changes":[1.2645353E1,1.9031784E1,3.9255152E0,1.2776094E1,9.356063E0,6.151926E0,5.575197E0,1.4125366E1,6.512157E0,1.0395596E1,6.3789883E0,7.3543277E0,2.1264248E0,4.945466E0,2.039353E0,0E0,0E0,0E0,0E0,0E0,0E0,0E0,0E0,0E0,0E0,0E0,0E0,0E0,0E0,0E0,0E0],"parents":[2147483647,0,0,1,1,2,2,3,3,4,4,5,5,6,6,7,7,8,8,9,9,10,10,11,11,12,12,13,13,14,14],"right_children":[2,4,6,8,10,12,14,16,18,20,22,24,26,28,30,-1,-1,-1,-1,-1,-1,-1,-1,-1,-1,-1,-1,-1,-1,-1,-1],"split_conditions":[7.92005E-2,-8.172605E-3,-4.9753685E-2,2.4786567E-2,2.6406383E-2,1.4341578E-1,1.7857143E-1,-5.7154596E-1,-4.0828437E-2,1.1985268E-2,1.1875456E-1,-1.1093103E-1,5.4279286E-1,9.0649056E-1,5.929042E-1,3.4784724E-4,6.5410254E-3,2.9388918E-3,-5.94357E-4,-2.4588275E-4,-3.356255E-3,1.006293E-3,-7.5884457E-3,6.2882667E-3,-5.011632E-3,-1.0393873E-2,-1.762942E-4,2.1921462E-4,-5.522565E-3,-9.745054E-3,-2.1061676E-3],"split_indices":[3,2,2,3,3,3,2,0,2,2,2,2,3,0,0,0,0,0,0,0,0,0,0,0,0,0,0,0,0,0,0],"split_type":[0,0,0,0,0,0,0,0,0,0,0,0,0,0,0,0,0,0,0,0,0,0,0,0,0,0,0,0,0,0,0],"sum_hessian":[3.108436E3,2.7225632E3,3.8587274E2,8.676686E2,1.8548948E3,1.0528875E2,2.8058398E2,3.6520013E2,5.024684E2,1.0530767E3,8.018181E2,6.1923317E1,4.336543E1,2.4562303E2,3.4960968E1,1.26943535E2,2.382566E2,1.8496141E2,3.1750702E2,6.782222E2,3.748545E2,7.8288544E2,1.8932632E1,1.7123531E1,4.479979E1,3.8135246E1,5.230181E0,2.0628429E2,3.9338734E1,2.1984026E1,1.2976943E1],"tree_param":{"num_deleted":"0","num_feature":"6","num_nodes":"31","size_leaf_vector":"1"}},{"base_weights":[8.023577E-3,3.6649913E-2,-1.6650906E-1,2.525148E-1,9.468426E-3,4.4423974E-1,-1.9045623E-1,5.972869E-1,1.0321291E-1,5.2460205E-2,-6.832622E-2,2.074611E-2,7.462754E-1,-1.0260897E0,-1.7120676E-1,-3.930452E-3,1.2115313E-2,2.9114045E-3,-3.3146192E-3,-5.1912386E-3,9.2778547E-4,-7.0561646E-3,-6.735278E-4,9.752229E-3,-7.3008896E-3,1.8401394E-3,1.6138488E-2,-6.656191E-3,-2.4074713E-2,2.8434999E-3,-3.0935127E-3],"categories":[],"categories_nodes":[],"categories_segments":[],"categories_sizes":[],"default_left":[0,0,0,0,0,0,0,0,0,0,0,0,0,0,0,0,0,0,0,0,0,0,0,0,0,0,0,0,0,0,0],"id":24,"left_children":[1,3,5,7,9,11,13,15,17,19,21,23,25,27,29,-1,-1,-1,-1,-1,-1,-1,-1,-1,-1,-1,-1,-1,-1,-1,-1],"loss_changes":[1.5381778E1,1.5515128E1,6.429426E0,1.5161036E1,7.8629427E0,2.1165104E0,6.550393E0,1.6331133E1,6.1584864E0,5.688837E0,7.8607645E0,2.8612616E0,1.8619828E0,2.3943424E0,5.2193623E0,0E0,0E0,0E0,0E0,0E0,0E0,0E0,0E0,0E0,0E0,0E0,0E0,0E0,0E0,0E0,0E0],"parents":[2147483647,0,0,1,1,2,2,3,3,4,4,5,5,6,6,7,7,8,8,9,9,10,10,11,11,12,12,13,13,14,14],"right_children":[2,4,6,8,10,12,14,16,18,20,22,24,26,28,30,-1,-1,-1,-1,-1,-1,-1,-1,-1,-1,-1,-1,-1,-1,-1,-1],"split_conditions":[7.414505E-2,-3.3095706E-2,-1.4958555E0,2.9424723E-2,4.6111055E-2,-1.7886763E0,-1.2841933E0,-1.1332408E0,-4.0828437E-2,-1.9678241E0,-8.579885E-1,-2.874929E-1,-4.6912443E-2,-1.3468361E0,-1.1093103E-1,-3.930452E-3,1.2115313E-2,2.9114045E-3,-3.3146192E-3,-5.1912386E-3,9.2778547E-4,-7.0561646E-3,-6.735278E-4,9.752229E-3,-7.3008896E-3,1.8401394E-3,1.6138488E-2,-6.656191E-3,-2.4074713E-2,2.8434999E-3,-3.0935127E-3],"split_indices":[3,2,0,3,1,0,0,0,2,0,0,1,2,0,2,0,0,0,0,0,0,0,0,0,0,0,0,0,0,0,0],"split_type":[0,0,0,0,0,0,0,0,0,0,0,0,0,0,0,0,0,0,0,0,0,0,0,0,0,0,0,0,0,0,0],"sum_hessian":[3.0764556E3,2.643643E3,4.3281265E2,2.94729E2,2.348914E3,1.566789E1,4.1714474E2,8.815605E1,2.0657295E2,1.5130696E3,8.3584436E2,6.967387E0,8.700502E0,8.215132E0,4.0892963E2,1.7290974E1,7.0865074E1,1.6165646E2,4.4916477E1,3.4011066E1,1.4790585E3,4.4962936E1,7.908815E2,2.9845667E0,3.9828205E0,3.4831219E0,5.2173805E0,4.9760003E0,3.2391315E0,3.5798847E1,3.7313077E2],"tree_param":{"num_deleted":"0","num_feature":"6","num_nodes":"31","size_leaf_vector":"1"}},{"base_weights":[1.1216599E-2,3.4908116E-2,-1.3749023E-1,1.2739421E-1,-6.928537E-3,-3.5606095E-1,-9.695787E-2,8.607669E-2,3.268525E-1,-8.8717943E-1,-1.627236E-3,-1.2077004E-1,-1.0136579E0,1.5089123E-2,-1.106389E-1,1.1128532E-3,8.504098E-3,-1.1093729E-3,5.893822E-3,-1.7086014E-2,8.921223E-3,-4.1634194E-4,1.594078E-3,9.518785E-3,-3.6568663E-3,7.227969E-4,-1.8273821E-2,1.8448444E-3,-2.7008743E-3],"categories":[],"categories_nodes":[],"categories_segments":[],"categories_sizes":[],"default_left":[0,0,0,0,0,0,0,0,0,0,0,0,0,0,0,0,0,0,0,0,0,0,0,0,0,0,0,0,0],"id":25,"left_children":[1,3,5,7,9,11,13,15,17,19,21,23,25,-1,27,-1,-1,-1,-1,-1,-1,-1,-1,-1,-1,-1,-1,-1,-1],"loss_changes":[1.0824309E1,1.025376E1,3.7061162E0,6.7738132E0,8.516875E0,1.0039569E1,5.5063834E0,3.8737516E0,3.7702312E0,4.755908E0,5.121369E0,4.754972E0,3.7892704E0,0E0,5.764667E0,0E0,0E0,0E0,0E0,0E0,0E0,0E0,0E0,0E0,0E0,0E0,0E0,0E0,0E0],"parents":[2147483647,0,0,1,1,2,2,3,3,4,4,5,5,6,6,7,7,8,8,9,9,10,10,11,11,12,12,14,14],"right_children":[2,4,6,8,10,12,14,16,18,20,22,24,26,-1,28,-1,-1,-1,-1,-1,-1,-1,-1,-1,-1,-1,-1,-1,-1],"split_conditions":[7.528519E-2,3.217669E-3,-6.916205E-2,4.2195696E-1,-1.859169E0,-1.3475756E-1,-5.3072535E-2,6.989105E-2,1.4120962E-2,3.4160253E-2,1.0992959E0,-1.6260562E0,-1.4958555E0,1.5089123E-2,-5.7903504E-1,1.1128532E-3,8.504098E-3,-1.1093729E-3,5.893822E-3,-1.7086014E-2,8.921223E-3,-4.1634194E-4,1.594078E-3,9.518785E-3,-3.6568663E-3,7.227969E-4,-1.8273821E-2,1.8448444E-3,-2.7008743E-3],"split_indices":[3,1,1,0,0,1,1,3,3,3,0,0,0,0,0,0,0,0,0,0,0,0,0,0,0,0,0,0,0],"split_type":[0,0,0,0,0,0,0,0,0,0,0,0,0,0,0,0,0,0,0,0,0,0,0,0,0,0,0,0,0],"sum_hessian":[3.070028E3,2.6487954E3,4.2123273E2,8.2436646E2,1.824429E3,6.467708E1,3.5655563E2,6.8408966E2,1.4027678E2,9.925976E0,1.814503E3,4.850532E1,1.6171753E1,3.480081E0,3.5307556E2,6.68714E2,1.5375676E1,1.9833921E1,1.20442856E2,8.681682E0,1.2442938E0,1.4613618E3,3.5314124E2,6.211014E0,4.2294308E1,2.736093E0,1.3435659E1,8.0702484E1,2.7237308E2],"tree_param":{"num_deleted":"0","num_feature":"6","num_nodes":"29","size_leaf_vector":"1"}},{"base_weights":[-7.619926E-5,4.9399633E-2,-9.314649E-2,1.588938E-1,-2.9576404E-2,-3.6335185E-1,-4.1798737E-2,-4.898957E-1,1.7513801E-1,-2.3108302E-1,9.613067E-3,-7.1024045E-2,-4.9710786E-1,-1.6509475E-2,-4.8600706E-1,1.4067934E-3,-1.231302E-2,6.2784296E-4,3.4915044E-3,5.7179714E-4,-4.7822143E-3,-1.8456621E-2,2.2935592E-4,-8.402186E-3,5.588958E-4,-3.4581888E-3,-1.1693551E-2,7.595263E-3,-4.746384E-4,-1.1342456E-2,4.6628746E-3],"categories":[],"categories_nodes":[],"categories_segments":[],"categories_sizes":[],"default_left":[0,0,0,0,0,0,0,0,0,0,0,0,0,0,0,0,0,0,0,0,0,0,0,0,0,0,0,0,0,0,0],"id":26,"left_children":[1,3,5,7,9,11,13,15,17,19,21,23,25,27,29,-1,-1,-1,-1,-1,-1,-1,-1,-1,-1,-1,-1,-1,-1,-1,-1],"loss_changes":[1.419111E1,1.7404907E1,1.4825881E1,8.973799E0,9.24044E0,6.638464E0,1.0102171E1,4.1073246E0,6.315275E0,4.5115566E0,6.920577E0,2.920494E0,8.624739E0,6.761782E0,1.0663632E1,0E0,0E0,0E0,0E0,0E0,0E0,0E0,0E0,0E0,0E0,0E0,0E0,0E0,0E0,0E0,0E0],"parents":[2147483647,0,0,1,1,2,2,3,3,4,4,5,5,6,6,7,7,8,8,9,9,10,10,11,11,12,12,13,13,14,14],"right_children":[2,4,6,8,10,12,14,16,18,20,22,24,26,28,30,-1,-1,-1,-1,-1,-1,-1,-1,-1,-1,-1,-1,-1,-1,-1,-1],"split_conditions":[6.746984E1,-7.196881E-3,-1.215882E-2,-4.675545E-1,3.0404768E1,7.378367E1,1.410628E-1,-4.2961996E-2,-5.7615066E-1,-1.867094E-3,-7.851432E-1,-7.1736015E-2,-3.7796447E-1,-3.5964993E-1,9.9510284E1,1.4067934E-3,-1.231302E-2,6.2784296E-4,3.4915044E-3,5.7179714E-4,-4.7822143E-3,-1.8456621E-2,2.2935592E-4,-8.402186E-3,5.588958E-4,-3.4581888E-3,-1.1693551E-2,7.595263E-3,-4.746384E-4,-1.1342456E-2,4.6628746E-3],"split_indices":[4,2,2,1,4,4,2,2,0,1,1,2,0,1,4,0,0,0,0,0,0,0,0,0,0,0,0,0,0,0,0],"split_type":[0,0,0,0,0,0,0,0,0,0,0,0,0,0,0,0,0,0,0,0,0,0,0,0,0,0,0,0,0,0,0],"sum_hessian":[3.079856E3,2.0111859E3,1.06867E3,8.4233777E2,1.1688481E3,1.6968207E2,8.989879E2,1.9862844E1,8.224749E2,1.8951137E2,9.7933673E2,5.3747116E1,1.15934944E2,8.5154565E2,4.7442253E1,7.44679E0,1.2416054E1,2.4879608E2,5.7367883E2,4.6719227E1,1.4279214E2,3.4800842E0,9.758566E2,8.985652E0,4.4761463E1,6.058067E1,5.535428E1,2.3039867E1,8.285058E2,3.5468613E1,1.197364E1],"tree_param":{"num_deleted":"0","num_feature":"6","num_nodes":"31","size_leaf_vector":"1"}},{"base_weights":[6.6900905E-3,1.0751202E-1,-2.2624005E-2,1.5441519E-1,-1.6253947E-1,-9.1990596E-1,-1.8038789E-2,-1.1451099E-1,1.9752838E-1,-3.801302E-1,1.4422536E-1,-1.7225618E-2,9.049294E-3,-9.880339E-3,-2.1878397E-1,5.5188127E-4,-7.892859E-3,2.0944884E-3,6.8086935E-3,1.4317946E-3,-7.891189E-3,-2.737319E-4,1.3162081E-2,2.4495074E-3,-2.608751E-4,-1.7781049E-2,-2.892284E-3],"categories":[],"categories_nodes":[],"categories_segments":[],"categories_sizes":[],"default_left":[0,0,0,0,0,0,0,0,0,0,0,0,0,0,0,0,0,0,0,0,0,0,0,0,0,0,0],"id":27,"left_children":[1,3,5,7,9,11,13,15,17,19,21,-1,-1,23,25,-1,-1,-1,-1,-1,-1,-1,-1,-1,-1,-1,-1],"loss_changes":[9.15424E0,8.862232E0,9.856903E0,6.920721E0,6.978842E0,4.9318438E0,3.9099119E0,5.1790767E0,7.553196E0,4.2816114E0,5.230533E0,0E0,0E0,2.9900682E0,2.1115618E0,0E0,0E0,0E0,0E0,0E0,0E0,0E0,0E0,0E0,0E0,0E0,0E0],"parents":[2147483647,0,0,1,1,2,2,3,3,4,4,5,5,6,6,7,7,8,8,9,9,10,10,13,13,14,14],"right_children":[2,4,6,8,10,12,14,16,18,20,22,-1,-1,24,26,-1,-1,-1,-1,-1,-1,-1,-1,-1,-1,-1,-1],"split_conditions":[9.298475E-4,7.414505E-2,-1.859169E0,1.2537733E-2,-3.5290873E-1,3.4160253E-2,1.5721908E-1,1.06990365E-2,4.126228E-1,-1.4611964E0,-1.8330026E-2,-1.7225618E-2,9.049294E-3,-1.1125216E0,1.321964E-3,5.5188127E-4,-7.892859E-3,2.0944884E-3,6.8086935E-3,1.4317946E-3,-7.891189E-3,-2.737319E-4,1.3162081E-2,2.4495074E-3,-2.608751E-4,-1.7781049E-2,-2.892284E-3],"split_indices":[1,3,0,3,0,3,3,3,0,0,1,0,0,0,1,0,0,0,0,0,0,0,0,0,0,0,0],"split_type":[0,0,0,0,0,0,0,0,0,0,0,0,0,0,0,0,0,0,0,0,0,0,0,0,0,0,0],"sum_hessian":[3.0955305E3,6.9669006E2,2.3988403E3,5.9395825E2,1.0273186E2,1.1181112E1,2.3876592E3,8.183593E1,5.121223E2,5.9961517E1,4.277034E1,9.936742E0,1.2443703E0,2.2954207E3,9.223858E1,6.0508205E1,2.1327724E1,4.1904068E2,9.308163E1,1.416149E1,4.5800026E1,3.5810497E1,6.9598427E0,9.455796E1,2.2008628E3,1.2447698E0,9.0993805E1],"tree_param":{"num_deleted":"0","num_feature":"6","num_nodes":"27","size_leaf_vector":"1"}},{"base_weights":[-1.6581414E-2,-6.073863E-3,-3.9458162E-1,3.579082E-2,-5.5294275E-2,-2.4084134E-1,-7.3299956E-1,7.0355654E-2,-1.378844E-1,-2.248281E-1,3.1245552E-2,-7.986599E-2,-1.24326125E-2,-2.939008E-1,-1.0326046E0,3.131348E-3,2.2120813E-4,-3.6141875E-3,1.0909978E-3,-2.321202E-3,-7.328041E-3,2.3328867E-3,-3.9197752E-4,-7.5510065E-3,3.151912E-3,-1.5603529E-2,2.7805567E-3,2.6193163E-3,-1.7358037E-2],"categories":[],"categories_nodes":[],"categories_segments":[],"categories_sizes":[],"default_left":[0,0,0,0,0,0,0,0,0,0,0,0,0,0,0,0,0,0,0,0,0,0,0,0,0,0,0,0,0],"id":28,"left_children":[1,3,5,7,9,11,13,15,17,19,21,23,-1,25,27,-1,-1,-1,-1,-1,-1,-1,-1,-1,-1,-1,-1,-1,-1],"loss_changes":[1.2197774E1,6.162328E0,4.144953E0,9.711352E0,2.0172539E1,5.4807944E0,3.0455322E0,1.0375546E1,5.847692E0,8.511124E0,6.4992266E0,5.8924685E0,0E0,4.386012E0,2.4183578E0,0E0,0E0,0E0,0E0,0E0,0E0,0E0,0E0,0E0,0E0,0E0,0E0,0E0,0E0],"parents":[2147483647,0,0,1,1,2,2,3,3,4,4,5,5,6,6,7,7,8,8,9,9,10,10,11,11,13,13,14,14],"right_children":[2,4,6,8,10,12,14,16,18,20,22,24,-1,26,28,-1,-1,-1,-1,-1,-1,-1,-1,-1,-1,-1,-1,-1,-1],"split_conditions":[1.1875456E-1,3.9024495E-3,1.0655022E-1,6.519653E-2,2.0548481E-2,2.0951822E-1,2E0,-2.4793364E-2,-2.6680801E-2,1.7310599E-2,2.702645E-3,9.0645604E-2,-1.24326125E-2,8.4021874E-2,5.1593468E-2,3.131348E-3,2.2120813E-4,-3.6141875E-3,1.0909978E-3,-2.321202E-3,-7.328041E-3,2.3328867E-3,-3.9197752E-4,-7.5510065E-3,3.151912E-3,-1.5603529E-2,2.7805567E-3,2.6193163E-3,-1.7358037E-2],"split_indices":[2,2,1,3,3,3,5,2,2,3,1,3,0,3,3,0,0,0,0,0,0,0,0,0,0,0,0,0,0],"split_type":[0,0,0,0,0,0,0,0,0,0,0,0,0,0,0,0,0,0,0,0,0,0,0,0,0,0,0,0,0],"sum_hessian":[3.0706543E3,2.9885942E3,8.20601E1,1.615119E3,1.3734752E3,5.7603165E1,2.4456934E1,1.3475288E3,2.675902E2,4.6362448E2,9.098507E2,4.6114365E1,1.1488803E1,1.0722734E1,1.37342E1,3.8544968E2,9.620791E2,1.7957489E2,8.801533E1,3.6753708E2,9.608741E1,2.8684018E2,6.230105E2,1.8442806E1,2.7671556E1,3.7354054E0,6.9873295E0,1.2473342E0,1.2486865E1],"tree_param":{"num_deleted":"0","num_feature":"6","num_nodes":"29","size_leaf_vector":"1"}},{"base_weights":[3.3296165E-3,7.182201E-2,-6.592456E-2,1.5144295E-1,-1.2300663E-1,-7.417349E-2,5.23175E-1,5.373984E-2,2.8503376E-1,-3.5042584E-1,5.378964E-2,-6.888248E-1,-6.761761E-2,-4.6537068E-2,7.3402065E-1,-2.013939E-3,2.077123E-3,4.4029416E-3,-1.7035844E-2,-1.739745E-3,-8.4595885E-3,4.282362E-5,7.741261E-3,-1.8650154E-3,-2.0935243E-2,4.861443E-3,-1.2222385E-3,5.4110633E-3,-1.3227758E-2,1.2655376E-2,-4.479721E-3],"categories":[],"categories_nodes":[],"categories_segments":[],"categories_sizes":[],"default_left":[0,0,0,0,0,0,0,0,0,0,0,0,0,0,0,0,0,0,0,0,0,0,0,0,0,0,0,0,0,0,0],"id":29,"left_children":[1,3,5,7,9,11,13,15,17,19,21,23,25,27,29,-1,-1,-1,-1,-1,-1,-1,-1,-1,-1,-1,-1,-1,-1,-1,-1],"loss_changes":[1.46939125E1,2.4178125E1,7.5240116E0,1.442108E1,1.82076E1,6.0781755E0,2.6041727E0,1.021506E1,5.970024E0,9.84712E0,6.012012E0,6.1835074E0,8.200297E0,2.6041636E0,2.027275E0,0E0,0E0,0E0,0E0,0E0,0E0,0E0,0E0,0E0,0E0,0E0,0E0,0E0,0E0,0E0,0E0],"parents":[2147483647,0,0,1,1,2,2,3,3,4,4,5,5,6,6,7,7,8,8,9,9,10,10,11,11,12,12,13,13,14,14],"right_children":[2,4,6,8,10,12,14,16,18,20,22,24,26,28,30,-1,-1,-1,-1,-1,-1,-1,-1,-1,-1,-1,-1,-1,-1,-1,-1],"split_conditions":[2.3445897E-3,6.428571E1,2.2431717E0,4.3525185E1,-1.37110315E-2,-1.9678241E0,5.4539906E1,-5.7615066E-1,2.4509132E0,-3.7796447E-1,1.1709358E-3,5.6786884E1,-1.3142276E0,2.4509132E0,9.039841E1,-2.013939E-3,2.077123E-3,4.4029416E-3,-1.7035844E-2,-1.739745E-3,-8.4595885E-3,4.282362E-5,7.741261E-3,-1.8650154E-3,-2.0935243E-2,4.861443E-3,-1.2222385E-3,5.4110633E-3,-1.3227758E-2,1.2655376E-2,-4.479721E-3],"split_indices":[2,4,0,4,2,0,4,0,0,0,2,4,0,0,4,0,0,0,0,0,0,0,0,0,0,0,0,0,0,0,0],"split_type":[0,0,0,0,0,0,0,0,0,0,0,0,0,0,0,0,0,0,0,0,0,0,0,0,0,0,0,0,0,0,0],"sum_hessian":[3.0957712E3,1.5564272E3,1.5393439E3,1.1050481E3,4.5137915E2,1.5189487E3,2.0395144E1,6.390639E2,4.659842E2,1.9699522E2,2.5438393E2,1.4931845E1,1.5040168E3,5.719675E0,1.4675468E1,1.9836499E2,4.406989E2,4.64003E2,1.9812032E0,9.463885E1,1.0235638E2,2.3004427E2,2.4339668E1,8.955756E0,5.9760876E0,5.0650814E1,1.4533661E3,4.2269015E0,1.4927737E0,1.343197E1,1.2434987E0],"tree_param":{"num_deleted":"0","num_feature":"6","num_nodes":"31","size_leaf_vector":"1"}},{"base_weights":[-4.5182253E-3,2.1459784E-2,-1.6027799E-1,2.1580853E-1,-1.5352056E-2,-1.22397475E-1,-5.749548E-1,4.9889743E-1,2.8930692E-2,-5.1663797E-2,9.57305E-2,-2.8620246E-1,2.4657505E-2,-1.2010018E0,-1.2938538E-2,7.8078895E-3,-1.473614E-2,2.5502103E-3,-3.1993252E-3,4.510729E-4,-2.000575E-3,-1.4716509E-3,3.0027707E-3,-1.385901E-3,-9.006032E-3,9.183251E-3,-3.8261576E-5,-4.8214034E-3,-2.1954836E-2,-1.0348787E-2,3.8157962E-3],"categories":[],"categories_nodes":[],"categories_segments":[],"categories_sizes":[],"default_left":[0,0,0,0,0,0,0,0,0,0,0,0,0,0,0,0,0,0,0,0,0,0,0,0,0,0,0,0,0,0,0],"id":30,"left_children":[1,3,5,7,9,11,13,15,17,19,21,23,25,27,29,-1,-1,-1,-1,-1,-1,-1,-1,-1,-1,-1,-1,-1,-1,-1,-1],"loss_changes":[1.2425765E1,1.8834019E1,6.8247957E0,2.216347E1,8.934739E0,9.726288E0,1.2816886E1,5.8501625E0,8.701919E0,1.1150969E1,1.10697E1,1.1572399E1,3.4151936E0,3.5128632E0,3.836502E0,0E0,0E0,0E0,0E0,0E0,0E0,0E0,0E0,0E0,0E0,0E0,0E0,0E0,0E0,0E0,0E0],"parents":[2147483647,0,0,1,1,2,2,3,3,4,4,5,5,6,6,7,7,8,8,9,9,10,10,11,11,12,12,13,13,14,14],"right_children":[2,4,6,8,10,12,14,16,18,20,22,24,26,28,30,-1,-1,-1,-1,-1,-1,-1,-1,-1,-1,-1,-1,-1,-1,-1,-1],"split_conditions":[7.414505E-2,-2.4793364E-2,1.7857143E-1,3.038249E-2,3.660828E-2,-7.196881E-3,8.2352936E1,8.317389E1,-3.9025668E-2,4.173169E-3,4.9591793E1,6.687152E1,-3.6806082E-3,5.5414642E1,1.0909886E-1,7.8078895E-3,-1.473614E-2,2.5502103E-3,-3.1993252E-3,4.510729E-4,-2.000575E-3,-1.4716509E-3,3.0027707E-3,-1.385901E-3,-9.006032E-3,9.183251E-3,-3.8261576E-5,-4.8214034E-3,-2.1954836E-2,-1.0348787E-2,3.8157962E-3],"split_indices":[3,2,2,3,3,2,4,4,2,2,4,4,2,4,3,0,0,0,0,0,0,0,0,0,0,0,0,0,0,0,0],"split_type":[0,0,0,0,0,0,0,0,0,0,0,0,0,0,0,0,0,0,0,0,0,0,0,0,0,0,0,0,0,0,0],"sum_hessian":[3.0690237E3,2.6310696E3,4.3795422E2,4.18218E2,2.2128516E3,4.024828E2,3.547144E1,1.6563652E2,2.5258147E2,1.6681013E3,5.4475024E2,1.8995032E2,2.1253247E2,1.6242014E1,1.9229424E1,1.6389214E2,1.7443879E0,1.5980138E2,9.27801E1,8.3422644E2,8.338749E2,1.9077708E2,3.5397314E2,1.1828324E2,7.1667076E1,8.454632E0,2.0407784E2,4.246182E0,1.19958315E1,4.99617E0,1.42332535E1],"tree_param":{"num_deleted":"0","num_feature":"6","num_nodes":"31","size_leaf_vector":"1"}},{"base_weights":[-1.93197E-2,-4.370421E-4,-1.450333E-1,-3.455862E-2,8.096781E-2,1.3031356E-2,-2.4507457E-1,-1.7726438E-2,-2.4343331E-1,-5.4080334E-2,1.7671031E-1,-3.3707093E-2,1.8128298E-2,-7.9500514E-1,-2.1201898E-1,-5.6752044E-4,1.7238766E-3,-1.4036627E-3,-1.3431769E-2,6.617827E-4,-2.9658936E-3,6.133822E-3,1.0227048E-3,7.0920755E-4,-5.052823E-3,-5.3368714E-3,-1.7954994E-2,-2.5871398E-3,-9.364546E-3],"categories":[],"categories_nodes":[],"categories_segments":[],"categories_sizes":[],"default_left":[0,0,0,0,0,0,0,0,0,0,0,0,0,0,0,0,0,0,0,0,0,0,0,0,0,0,0,0,0],"id":31,"left_children":[1,3,5,7,9,11,13,15,17,19,21,23,-1,25,27,-1,-1,-1,-1,-1,-1,-1,-1,-1,-1,-1,-1,-1,-1],"loss_changes":[7.3610344E0,7.4942045E0,6.406643E0,6.6797276E0,1.0313137E1,8.864063E0,4.34042E0,4.7001195E0,1.3761467E1,4.682708E0,1.1729651E1,3.7707527E0,0E0,1.9930849E0,3.729083E0,0E0,0E0,0E0,0E0,0E0,0E0,0E0,0E0,0E0,0E0,0E0,0E0,0E0,0E0],"parents":[2147483647,0,0,1,1,2,2,3,3,4,4,5,5,6,6,7,7,8,8,9,9,10,10,11,11,13,13,14,14],"right_children":[2,4,6,8,10,12,14,16,18,20,22,24,-1,26,28,-1,-1,-1,-1,-1,-1,-1,-1,-1,-1,-1,-1,-1,-1],"split_conditions":[7.791725E-2,3.660828E-2,5.7736263E1,3.2998685E-2,4.9168594E1,5.6786884E1,8.06258E-2,2.8119083E-2,7.66506E1,7.5922166E-3,3.519812E-3,9.623629E-2,1.8128298E-2,2E0,2.9469168E-1,-5.6752044E-4,1.7238766E-3,-1.4036627E-3,-1.3431769E-2,6.617827E-4,-2.9658936E-3,6.133822E-3,1.0227048E-3,7.0920755E-4,-5.052823E-3,-5.3368714E-3,-1.7954994E-2,-2.5871398E-3,-9.364546E-3],"split_indices":[3,3,4,3,4,4,3,3,4,1,1,1,0,5,1,0,0,0,0,0,0,0,0,0,0,0,0,0,0],"split_type":[0,0,0,0,0,0,0,0,0,0,0,0,0,0,0,0,0,0,0,0,0,0,0,0,0,0,0,0,0],"sum_hessian":[3.0999673E3,2.6960188E3,4.039487E2,1.9001353E3,7.958834E2,1.569067E2,2.47042E2,1.7594359E3,1.4069939E2,3.303493E2,4.655341E2,1.5193852E2,4.96817E0,1.2700417E1,2.3434158E2,1.5284565E3,2.3097943E2,1.1533502E2,2.5364368E1,1.9662526E2,1.3372404E2,1.473964E2,3.181377E2,1.2057128E2,3.1367243E1,6.9700737E0,5.730343E0,2.151267E2,1.9214893E1],"tree_param":{"num_deleted":"0","num_feature":"6","num_nodes":"29","size_leaf_vector":"1"}},{"base_weights":[-1.0836355E-2,4.0492784E-2,-9.7817585E-2,7.1809E-2,-1.3467632E-1,-2.200844E-1,-2.7064737E-2,1.12452775E-1,-2.947712E-2,2.8459963E-1,-1.7181168E-1,-1.768502E-1,-5.1257896E-1,1.3653253E-2,-4.552973E-1,1.00224715E-4,3.0691337E-3,3.5198266E-3,-2.2204176E-3,1.2715369E-2,1.7763804E-4,-5.5107055E-3,-1.0738272E-3,5.499317E-3,-2.9479E-3,-1.0383458E-2,-2.1008204E-3,-8.363509E-4,1.6736739E-3,-4.814836E-3,-1.6770905E-2],"categories":[],"categories_nodes":[],"categories_segments":[],"categories_sizes":[],"default_left":[0,0,0,0,0,0,0,0,0,0,0,0,0,0,0,0,0,0,0,0,0,0,0,0,0,0,0,0,0,0,0],"id":32,"left_children":[1,3,5,7,9,11,13,15,17,19,21,23,25,27,29,-1,-1,-1,-1,-1,-1,-1,-1,-1,-1,-1,-1,-1,-1,-1,-1],"loss_changes":[1.3792204E1,1.0667659E1,9.911312E0,6.791169E0,4.6422353E0,5.2216473E0,1.2688399E1,1.1470463E1,1.4844982E1,3.7343874E0,5.2978477E0,4.002103E0,3.4882374E0,4.527181E0,5.265154E0,0E0,0E0,0E0,0E0,0E0,0E0,0E0,0E0,0E0,0E0,0E0,0E0,0E0,0E0,0E0,0E0],"parents":[2147483647,0,0,1,1,2,2,3,3,4,4,5,5,6,6,7,7,8,8,9,9,10,10,11,11,12,12,13,13,14,14],"right_children":[2,4,6,8,10,12,14,16,18,20,22,24,26,28,30,-1,-1,-1,-1,-1,-1,-1,-1,-1,-1,-1,-1,-1,-1,-1,-1],"split_conditions":[1.0523973E-2,6.519653E-2,2.686828E-2,3E0,-1.4583941E-1,4E0,1.410628E-1,1.9410826E-2,1.3361768E-2,1.4341578E-1,-5.8392297E-2,-1.4958555E0,2.0548481E-2,2E0,2.3024544E-1,1.00224715E-4,3.0691337E-3,3.5198266E-3,-2.2204176E-3,1.2715369E-2,1.7763804E-4,-5.5107055E-3,-1.0738272E-3,5.499317E-3,-2.9479E-3,-1.0383458E-2,-2.1008204E-3,-8.363509E-4,1.6736739E-3,-4.814836E-3,-1.6770905E-2],"split_indices":[2,3,3,5,2,5,2,3,3,3,2,0,3,5,3,0,0,0,0,0,0,0,0,0,0,0,0,0,0,0,0],"split_type":[0,0,0,0,0,0,0,0,0,0,0,0,0,0,0,0,0,0,0,0,0,0,0,0,0,0,0,0,0,0,0],"sum_hessian":[3.0872996E3,1.9418906E3,1.145409E3,1.6478779E3,2.9401273E2,4.1908487E2,7.263242E2,1.1759044E3,4.7197345E2,2.33798E1,2.7063293E2,3.6651428E2,5.2570576E1,6.6414307E2,6.218115E1,5.480076E2,6.278968E2,1.4590846E2,3.2606497E2,6.941534E0,1.6438267E1,9.0795395E1,1.7983754E2,1.2189992E1,3.5432428E2,3.4887634E1,1.768294E1,3.889108E2,2.7523227E2,5.29377E1,9.243449E0],"tree_param":{"num_deleted":"0","num_feature":"6","num_nodes":"31","size_leaf_vector":"1"}},{"base_weights":[-1.0585675E-3,9.547027E-3,-2.3318435E-1,-8.951627E-3,1.2174929E-1,-1.8044144E-1,-7.4307525E-1,7.587019E-2,-3.8208213E-2,1.4253353E-1,-6.96615E-1,-1.2406975E-1,-8.595665E-1,-9.759105E-1,-1.8748749E-2,1.4206207E-3,-1.0297189E-2,-9.310492E-3,-4.991751E-4,5.522892E-3,1.3599831E-3,4.471586E-3,-1.3427217E-2,-3.1802913E-3,5.9145465E-3,-1.6739666E-2,2.2811708E-3,-6.2583196E-3,-2.1253083E-2,-8.39484E-3,9.760518E-3],"categories":[],"categories_nodes":[],"categories_segments":[],"categories_sizes":[],"default_left":[0,0,0,0,0,0,0,0,0,0,0,0,0,0,0,0,0,0,0,0,0,0,0,0,0,0,0,0,0,0,0],"id":33,"left_children":[1,3,5,7,9,11,13,15,17,19,21,23,25,27,29,-1,-1,-1,-1,-1,-1,-1,-1,-1,-1,-1,-1,-1,-1,-1,-1],"loss_changes":[7.546287E0,6.085637E0,3.467762E0,6.25033E0,7.1575994E0,4.590625E0,2.0450258E0,9.341883E0,5.356515E0,4.7130814E0,2.3301702E0,5.3020005E0,2.565343E0,1.6849146E0,1.811048E0,0E0,0E0,0E0,0E0,0E0,0E0,0E0,0E0,0E0,0E0,0E0,0E0,0E0,0E0,0E0,0E0],"parents":[2147483647,0,0,1,1,2,2,3,3,4,4,5,5,6,6,7,7,8,8,9,9,10,10,11,11,12,12,13,13,14,14],"right_children":[2,4,6,8,10,12,14,16,18,20,22,24,26,28,30,-1,-1,-1,-1,-1,-1,-1,-1,-1,-1,-1,-1,-1,-1,-1,-1],"split_conditions":[1.4341578E-1,1.0992959E0,3.13769E-1,9.298475E-4,6E0,1.1883802E0,1.3706095E0,1.1584507E-1,-1.7449515E0,1.2206904E0,1.1183675E-2,7.0710677E-1,2.1465101E0,2E0,1.9219126E-1,1.4206207E-3,-1.0297189E-2,-9.310492E-3,-4.991751E-4,5.522892E-3,1.3599831E-3,4.471586E-3,-1.3427217E-2,-3.1802913E-3,5.9145465E-3,-1.6739666E-2,2.2811708E-3,-6.2583196E-3,-2.1253083E-2,-8.39484E-3,9.760518E-3],"split_indices":[3,0,1,1,5,0,0,3,0,0,1,0,0,5,3,0,0,0,0,0,0,0,0,0,0,0,0,0,0,0,0],"split_type":[0,0,0,0,0,0,0,0,0,0,0,0,0,0,0,0,0,0,0,0,0,0,0,0,0,0,0,0,0,0,0],"sum_hessian":[3.0634092E3,2.9304775E3,1.329317E2,2.5165046E3,4.139729E2,1.21697266E2,1.1234437E1,6.4497504E2,1.8715295E3,4.0452487E2,9.448009E0,1.1346191E2,8.235366E0,8.23875E0,2.9956868E0,6.302765E2,1.4698532E1,1.4658362E1,1.8568712E3,7.44632E1,3.3006168E2,1.488507E0,7.9595013E0,9.750903E1,1.5952869E1,6.4878297E0,1.7475362E0,4.4927254E0,3.7460248E0,1.7476296E0,1.2480571E0],"tree_param":{"num_deleted":"0","num_feature":"6","num_nodes":"31","size_leaf_vector":"1"}},{"base_weights":[-1.6038109E-3,6.1591092E-2,-6.545088E-2,1.23789385E-1,-2.1478106E-1,-1.8153027E-1,8.021578E-3,9.580969E-2,3.4939834E-1,-9.3269E-1,-1.3570637E-1,-8.685251E-2,-2.6692733E-1,3.1319633E-2,-4.3038157E-1,-1.2111833E-3,2.0374951E-3,8.134428E-3,9.5802516E-4,-1.5893592E-2,4.0003E-3,4.7105276E-3,-3.120437E-3,-1.554416E-3,1.4794613E-2,-1.5053954E-3,-5.654956E-3,-2.2160588E-3,1.249663E-3,-1.2115096E-2,-2.2541398E-4],"categories":[],"categories_nodes":[],"categories_segments":[],"categories_sizes":[],"default_left":[0,0,0,0,0,0,0,0,0,0,0,0,0,0,0,0,0,0,0,0,0,0,0,0,0,0,0,0,0,0,0],"id":34,"left_children":[1,3,5,7,9,11,13,15,17,19,21,23,25,27,29,-1,-1,-1,-1,-1,-1,-1,-1,-1,-1,-1,-1,-1,-1,-1,-1],"loss_changes":[1.2491338E1,2.6772419E1,1.3135457E1,7.9878235E0,1.6120491E1,4.8033524E0,9.655733E0,8.009213E0,7.6666584E0,4.577959E0,8.488836E0,5.225338E0,5.7077007E0,8.365846E0,7.4636564E0,0E0,0E0,0E0,0E0,0E0,0E0,0E0,0E0,0E0,0E0,0E0,0E0,0E0,0E0,0E0,0E0],"parents":[2147483647,0,0,1,1,2,2,3,3,4,4,5,5,6,6,7,7,8,8,9,9,10,10,11,11,12,12,13,13,14,14],"right_children":[2,4,6,8,10,12,14,16,18,20,22,24,26,28,30,-1,-1,-1,-1,-1,-1,-1,-1,-1,-1,-1,-1,-1,-1,-1,-1],"split_conditions":[2.3445897E-3,7.378367E1,2.3481153E-2,1.0992959E0,-4.9753685E-2,1.1985268E-2,1.5817313E-1,2.3719864E1,3.198225E-2,5.4279286E-1,8.415451E-3,2.2933576E0,1.3935947E-2,4.378049E1,8.192468E1,-1.2111833E-3,2.0374951E-3,8.134428E-3,9.5802516E-4,-1.5893592E-2,4.0003E-3,4.7105276E-3,-3.120437E-3,-1.554416E-3,1.4794613E-2,-1.5053954E-3,-5.654956E-3,-2.2160588E-3,1.249663E-3,-1.2115096E-2,-2.2541398E-4],"split_indices":[2,4,3,0,2,2,2,4,3,3,3,0,3,4,4,0,0,0,0,0,0,0,0,0,0,0,0,0,0,0,0],"split_type":[0,0,0,0,0,0,0,0,0,0,0,0,0,0,0,0,0,0,0,0,0,0,0,0,0,0,0,0,0,0,0],"sum_hessian":[3.093894E3,1.554906E3,1.538988E3,1.269707E3,2.851989E2,5.959592E2,9.430289E2,1.1308815E3,1.388256E2,2.722565E1,2.5797324E2,2.835789E2,3.1238037E2,8.9632404E2,4.670478E1,2.087968E2,9.2208466E2,8.231584E1,5.650977E1,2.4726395E1,2.4992557E0,3.5274635E1,2.2269861E2,2.8010385E2,3.4750369E0,1.2505202E2,1.8732835E2,2.0127948E2,6.9504456E2,2.3978813E1,2.272597E1],"tree_param":{"num_deleted":"0","num_feature":"6","num_nodes":"31","size_leaf_vector":"1"}},{"base_weights":[-8.668522E-3,1.5656509E-2,-1.5843156E-1,1.1421772E-1,-1.4605539E-2,-1.4005981E-1,-5.81934E-1,-1.1945272E-1,1.535188E-1,-1.2606643E-1,5.223129E-3,3.2065248E-1,-1.5649542E-1,-2.060363E-1,-1.5588846E-2,-1.146716E-2,-7.564309E-4,1.0914506E-3,3.6818355E-3,-6.5312E-4,-4.5756693E-3,2.7888376E-5,9.794743E-3,1.0493075E-2,-6.6247117E-3,-6.9867317E-3,-1.5817871E-3,-2.0014951E-2,2.2898754E-3],"categories":[],"categories_nodes":[],"categories_segments":[],"categories_sizes":[],"default_left":[0,0,0,0,0,0,0,0,0,0,0,0,0,0,0,0,0,0,0,0,0,0,0,0,0,0,0,0,0],"id":35,"left_children":[1,3,5,7,9,11,13,15,17,19,21,23,25,27,-1,-1,-1,-1,-1,-1,-1,-1,-1,-1,-1,-1,-1,-1,-1],"loss_changes":[1.1290026E1,7.954645E0,3.2876616E0,5.7716274E0,4.5113373E0,3.202752E0,2.8263845E0,4.0022807E0,3.9669762E0,4.5400724E0,3.776389E0,4.5457387E0,6.307827E0,4.637322E0,0E0,0E0,0E0,0E0,0E0,0E0,0E0,0E0,0E0,0E0,0E0,0E0,0E0,0E0,0E0],"parents":[2147483647,0,0,1,1,2,2,3,3,4,4,5,5,6,6,7,7,8,8,9,9,10,10,11,11,12,12,13,13],"right_children":[2,4,6,8,10,12,14,16,18,20,22,24,26,28,-1,-1,-1,-1,-1,-1,-1,-1,-1,-1,-1,-1,-1,-1,-1],"split_conditions":[7.414505E-2,1.321964E-3,6E0,1.2537733E-2,-6.929149E-1,-1.5105332E0,4.0228802E-1,-4.1341203E-1,-5.772128E-2,4.6111055E-2,7.289675E-2,-8.920839E-2,-6.916205E-2,-2.874929E-1,-1.5588846E-2,-1.146716E-2,-7.564309E-4,1.0914506E-3,3.6818355E-3,-6.5312E-4,-4.5756693E-3,2.7888376E-5,9.794743E-3,1.0493075E-2,-6.6247117E-3,-6.9867317E-3,-1.5817871E-3,-2.0014951E-2,2.2898754E-3],"split_indices":[3,1,5,3,0,0,0,1,1,1,3,1,1,1,0,0,0,0,0,0,0,0,0,0,0,0,0,0,0],"split_type":[0,0,0,0,0,0,0,0,0,0,0,0,0,0,0,0,0,0,0,0,0,0,0,0,0,0,0,0,0],"sum_hessian":[3.0974285E3,2.6654004E3,4.3202805E2,6.254811E2,2.0399192E3,4.1534106E2,1.6686993E1,8.976E1,5.3572107E2,3.0727988E2,1.7326393E3,1.3669072E1,4.01672E2,9.954988E0,6.732006E0,7.702754E0,8.205725E1,2.8615775E2,2.4956334E2,2.1115956E2,9.612033E1,1.7246857E3,7.9536552E0,9.185792E0,4.4832807E0,5.574835E1,3.4592365E2,1.7452492E0,8.209738E0],"tree_param":{"num_deleted":"0","num_feature":"6","num_nodes":"29","size_leaf_vector":"1"}},{"base_weights":[-1.3909258E-2,4.3114003E-2,-7.792717E-2,-6.8708086E-1,5.5722933E-2,2.861775E-1,-9.3107395E-2,-1.1483824E0,-1.9329268E-1,7.287933E-2,-3.8584903E-1,-4.94344E-1,5.700722E-1,-7.7951916E-2,-4.2024183E-1,-4.823035E-3,-2.157996E-2,3.231769E-3,-9.695543E-3,1.5110984E-3,-1.0887033E-3,-4.0043285E-3,-1.8301483E-2,4.5093745E-3,-1.2730599E-2,1.5849115E-2,5.372573E-3,-2.3260934E-3,-1.3779644E-4,-1.22965295E-2,-3.8934618E-3],"categories":[],"categories_nodes":[],"categories_segments":[],"categories_sizes":[],"default_left":[0,0,0,0,0,0,0,0,0,0,0,0,0,0,0,0,0,0,0,0,0,0,0,0,0,0,0,0,0,0,0],"id":36,"left_children":[1,3,5,7,9,11,13,15,17,19,21,23,25,27,29,-1,-1,-1,-1,-1,-1,-1,-1,-1,-1,-1,-1,-1,-1,-1,-1],"loss_changes":[1.1281384E1,1.5088268E1,8.07318E0,6.115571E0,1.2208506E1,1.3247189E1,6.8998346E0,2.9413662E0,2.8505588E0,6.2827997E0,5.6543436E0,4.802314E0,4.092906E0,7.092292E0,3.7470465E0,0E0,0E0,0E0,0E0,0E0,0E0,0E0,0E0,0E0,0E0,0E0,0E0,0E0,0E0,0E0,0E0],"parents":[2147483647,0,0,1,1,2,2,3,3,4,4,5,5,6,6,7,7,8,8,9,9,10,10,11,11,12,12,13,13,14,14],"right_children":[2,4,6,8,10,12,14,16,18,20,22,24,26,28,30,-1,-1,-1,-1,-1,-1,-1,-1,-1,-1,-1,-1,-1,-1,-1,-1],"split_conditions":[3.9024495E-3,-4.675545E-1,-3.3341587E-1,-1.0901971E0,3.6950523E-1,1.5200659E-2,1.410628E-1,-4.0828437E-2,-4.9774045E-1,6.519653E-2,9.973551E-2,7.071313E-3,2.4390211E-2,2.8119083E-2,9.0645604E-2,-4.823035E-3,-2.157996E-2,3.231769E-3,-9.695543E-3,1.5110984E-3,-1.0887033E-3,-4.0043285E-3,-1.8301483E-2,4.5093745E-3,-1.2730599E-2,1.5849115E-2,5.372573E-3,-2.3260934E-3,-1.3779644E-4,-1.22965295E-2,-3.8934618E-3],"split_indices":[2,1,1,0,1,2,2,2,1,3,3,2,2,3,3,0,0,0,0,0,0,0,0,0,0,0,0,0,0,0,0],"split_type":[0,0,0,0,0,0,0,0,0,0,0,0,0,0,0,0,0,0,0,0,0,0,0,0,0,0,0,0,0,0,0],"sum_hessian":[3.0884377E3,1.633628E3,1.4548098E3,2.6822468E1,1.6068055E3,5.7511734E1,1.3972981E3,1.3182033E1,1.3640435E1,1.5475149E3,5.929063E1,1.5141472E1,4.2370262E1,1.3366138E3,6.068433E1,3.972972E0,9.209061E0,7.446781E0,6.193654E0,1.2990157E3,2.4849922E2,5.305014E1,6.240491E0,4.7151837E0,1.0426289E1,1.1645414E1,3.0724848E1,6.2943866E2,7.0717505E2,1.6228945E1,4.4455387E1],"tree_param":{"num_deleted":"0","num_feature":"6","num_nodes":"31","size_leaf_vector":"1"}},{"base_weights":[2.0989631E-3,1.0596531E-1,-2.8767427E-2,-3.9751592E-1,1.2813158E-1,1.5263925E-2,-1.1273944E-1,-6.045091E-1,3.0527466E-3,-1.257271E-1,1.6445413E-1,-5.188425E-2,8.505048E-2,1.195942E-3,-2.0992489E-1,-3.5609705E-3,-1.78783E-2,3.6032036E-6,-7.820149E-3,1.5040443E-3,4.5322794E-3,1.7988402E-3,-1.5005342E-3,2.3306624E-3,-7.45347E-4,-4.842769E-3,7.796479E-4,-2.8742324E-3,-1.2351312E-2],"categories":[],"categories_nodes":[],"categories_segments":[],"categories_sizes":[],"default_left":[0,0,0,0,0,0,0,0,0,0,0,0,0,0,0,0,0,0,0,0,0,0,0,0,0,0,0,0,0],"id":37,"left_children":[1,3,5,7,9,11,13,15,-1,17,19,21,23,25,27,-1,-1,-1,-1,-1,-1,-1,-1,-1,-1,-1,-1,-1,-1],"loss_changes":[9.881274E0,7.9311543E0,8.787096E0,3.8577218E0,6.2638397E0,7.312913E0,9.051899E0,4.586276E0,0E0,4.251896E0,5.2085323E0,6.5926485E0,7.2583823E0,6.225328E0,4.7977123E0,0E0,0E0,0E0,0E0,0E0,0E0,0E0,0E0,0E0,0E0,0E0,0E0,0E0,0E0],"parents":[2147483647,0,0,1,1,2,2,3,3,4,4,5,5,6,6,7,7,9,9,10,10,11,11,12,12,13,13,14,14],"right_children":[2,4,6,8,10,12,14,16,-1,18,20,22,24,26,28,-1,-1,-1,-1,-1,-1,-1,-1,-1,-1,-1,-1,-1,-1],"split_conditions":[9.298475E-4,-7.865168E-2,1.3245021E-2,-6.34206E-2,1.2537733E-2,-3.5846997E-2,3.3141542E-2,-6.145902E-1,3.0527466E-3,1.06990365E-2,-2.7219752E-2,-3.1578947E-2,3.175903E-2,-6.67086E-1,1.9219126E-1,-3.5609705E-3,-1.78783E-2,3.6032036E-6,-7.820149E-3,1.5040443E-3,4.5322794E-3,1.7988402E-3,-1.5005342E-3,2.3306624E-3,-7.45347E-4,-4.842769E-3,7.796479E-4,-2.8742324E-3,-1.2351312E-2],"split_indices":[1,2,2,1,3,0,1,0,0,3,1,2,3,0,3,0,0,0,0,0,0,0,0,0,0,0,0,0,0],"split_type":[0,0,0,0,0,0,0,0,0,0,0,0,0,0,0,0,0,0,0,0,0,0,0,0,0,0,0,0,0],"sum_hessian":[3.0801885E3,7.050936E2,2.3750947E3,2.901935E1,6.760743E2,1.5586324E3,8.1646234E2,2.1581116E1,7.438235E0,8.4317444E1,5.9175684E2,7.944624E2,7.6417004E2,3.7629755E2,4.401648E2,1.4144788E1,7.4363275E0,6.471202E1,1.9605423E1,4.0479816E2,1.8695868E2,1.7359055E2,6.208718E2,5.020003E2,2.6216977E2,5.025385E1,3.260437E2,4.2868332E2,1.1481453E1],"tree_param":{"num_deleted":"0","num_feature":"6","num_nodes":"29","size_leaf_vector":"1"}},{"base_weights":[-8.415314E-4,5.1099185E-2,-5.8313265E-2,1.0400528E-1,-1.8499757E-1,-1.5922676E-1,-3.3812388E-3,-1.3627633E-1,1.1706241E-1,-6.4765143E-1,-5.599988E-2,-3.1304082E-1,9.7996E-2,8.086935E-2,-1.673488E-1,-7.057052E-3,9.49598E-3,2.5333746E-3,6.48028E-4,-1.2181126E-2,-3.7940412E-3,-3.2393339E-3,1.2381872E-3,-2.2334808E-2,-3.976063E-3,3.5572522E-3,-4.85304E-3,-9.2430075E-4,3.7548342E-3,1.4046044E-3,-7.7424105E-3],"categories":[],"categories_nodes":[],"categories_segments":[],"categories_sizes":[],"default_left":[0,0,0,0,0,0,0,0,0,0,0,0,0,0,0,0,0,0,0,0,0,0,0,0,0,0,0,0,0,0,0],"id":38,"left_children":[1,3,5,7,9,11,13,15,17,19,21,23,25,27,29,-1,-1,-1,-1,-1,-1,-1,-1,-1,-1,-1,-1,-1,-1,-1,-1],"loss_changes":[9.20507E0,2.0251778E1,8.114284E0,4.1695204E0,1.7682077E1,2.0444414E1,1.3122174E1,1.7960169E1,4.801594E0,3.9894218E0,5.18688E0,1.7832645E1,1.1446943E1,1.5166719E1,2.9399075E1,0E0,0E0,0E0,0E0,0E0,0E0,0E0,0E0,0E0,0E0,0E0,0E0,0E0,0E0,0E0,0E0],"parents":[2147483647,0,0,1,1,2,2,3,3,4,4,5,5,6,6,7,7,8,8,9,9,10,10,11,11,12,12,13,13,14,14],"right_children":[2,4,6,8,10,12,14,16,18,20,22,24,26,28,30,-1,-1,-1,-1,-1,-1,-1,-1,-1,-1,-1,-1,-1,-1,-1,-1],"split_conditions":[3.9024495E-3,7.378367E1,5.4539906E1,3.4544975E-1,-2.5962418E-2,2E0,3E0,5.017732E-1,-1.1423412E-2,2E0,-5.2644336E-3,4.645325E-3,7.0710653E-1,7.801263E1,8.106988E1,-7.057052E-3,9.49598E-3,2.5333746E-3,6.48028E-4,-1.2181126E-2,-3.7940412E-3,-3.2393339E-3,1.2381872E-3,-2.2334808E-2,-3.976063E-3,3.5572522E-3,-4.85304E-3,-9.2430075E-4,3.7548342E-3,1.4046044E-3,-7.7424105E-3],"split_indices":[2,4,4,4,2,5,5,0,2,5,2,2,0,4,4,0,0,0,0,0,0,0,0,0,0,0,0,0,0,0,0],"split_type":[0,0,0,0,0,0,0,0,0,0,0,0,0,0,0,0,0,0,0,0,0,0,0,0,0,0,0,0,0,0,0],"sum_hessian":[3.0816501E3,1.6187751E3,1.4628751E3,1.3228923E3,2.958828E2,5.149612E2,9.479139E2,6.7695816E1,1.2551965E3,6.363466E1,2.3224814E2,3.221218E2,1.928394E2,6.265063E2,3.2140762E2,4.74657E1,2.0230116E1,7.368497E2,5.1834686E2,4.417545E1,1.9459208E1,1.07535736E2,1.247124E2,1.14478E1,3.10674E2,1.4530832E2,4.7531086E1,3.4067566E2,2.8583063E2,1.8426663E2,1.3714098E2],"tree_param":{"num_deleted":"0","num_feature":"6","num_nodes":"31","size_leaf_vector":"1"}},{"base_weights":[-3.3709556E-3,1.6888006E-2,-1.2650615E-1,1.3631971E-2,6.352962E-1,-1.06909454E-1,-5.1562756E-1,3.9813034E-2,-5.583944E-2,3.395574E-2,1.3740146E-2,-5.837382E-1,-9.235201E-2,6.608476E-2,-1.4823578E-2,9.899632E-4,-1.0088806E-3,9.929884E-4,-4.867114E-3,8.335915E-3,-6.3565937E-3,-1.1507274E-2,3.5561314E-3,1.21499135E-4,-2.4037017E-3,1.0672085E-2,-6.9061974E-3],"categories":[],"categories_nodes":[],"categories_segments":[],"categories_sizes":[],"default_left":[0,0,0,0,0,0,0,0,0,0,0,0,0,0,0,0,0,0,0,0,0,0,0,0,0,0,0],"id":39,"left_children":[1,3,5,7,9,11,13,15,17,19,-1,21,23,25,-1,-1,-1,-1,-1,-1,-1,-1,-1,-1,-1,-1,-1],"loss_changes":[7.7214036E0,5.3435836E0,3.2795033E0,4.8134093E0,2.3153067E0,2.8447824E0,5.757748E0,5.3923464E0,2.377124E1,1.5400451E0,0E0,2.0160608E0,2.7730865E0,3.7998645E0,0E0,0E0,0E0,0E0,0E0,0E0,0E0,0E0,0E0,0E0,0E0,0E0,0E0],"parents":[2147483647,0,0,1,1,2,2,3,3,4,4,5,5,6,6,7,7,8,8,9,9,11,11,12,12,13,13],"right_children":[2,4,6,8,10,12,14,16,18,20,-1,22,24,26,-1,-1,-1,-1,-1,-1,-1,-1,-1,-1,-1,-1,-1],"split_conditions":[7.414505E-2,7.289675E-2,4.279981E-1,7.1609146E1,4.3247517E1,7.528519E-2,9.973551E-2,8.0184184E-2,3E0,2.6213627E1,1.3740146E-2,1.2195627E-1,5.7736263E1,3E0,-1.4823578E-2,9.899632E-4,-1.0088806E-3,9.929884E-4,-4.867114E-3,8.335915E-3,-6.3565937E-3,-1.1507274E-2,3.5561314E-3,1.21499135E-4,-2.4037017E-3,1.0672085E-2,-6.9061974E-3],"split_indices":[3,3,1,4,4,3,3,1,5,4,0,1,4,5,0,0,0,0,0,0,0,0,0,0,0,0,0],"split_type":[0,0,0,0,0,0,0,0,0,0,0,0,0,0,0,0,0,0,0,0,0,0,0,0,0,0,0],"sum_hessian":[3.0934016E3,2.6571018E3,4.3629993E2,2.6442017E3,1.2900173E1,4.165944E2,1.970553E1,1.9207666E3,7.23435E2,4.4622235E0,8.437949E0,1.1183394E1,4.0541098E2,9.218781E0,1.0486749E1,1.543649E3,3.7711755E2,4.979664E2,2.2546861E2,1.9851836E0,2.47704E0,9.194281E0,1.9891139E0,1.638587E2,2.4155228E2,3.9839172E0,5.234864E0],"tree_param":{"num_deleted":"0","num_feature":"6","num_nodes":"27","size_leaf_vector":"1"}},{"base_weights":[-6.923337E-3,8.59775E-3,-2.2913647E-1,1.05659954E-1,-1.9940577E-2,-6.258451E-1,-1.6092756E-1,-2.2318785E-1,1.55474E-1,-5.048384E-1,-1.6717587E-2,-9.211093E-1,-2.6160875E-1,-1.0305482E-1,-1.2177748E-2,-1.5232617E-2,-1.9509436E-3,1.4206184E-3,4.349391E-3,1.0811208E-2,-1.0472393E-2,-1.2278046E-4,-2.9085986E-3,-3.818232E-3,-1.747146E-2,-8.48016E-3,7.206686E-3,-2.175046E-3,7.64705E-3],"categories":[],"categories_nodes":[],"categories_segments":[],"categories_sizes":[],"default_left":[0,0,0,0,0,0,0,0,0,0,0,0,0,0,0,0,0,0,0,0,0,0,0,0,0,0,0,0,0],"id":40,"left_children":[1,3,5,7,9,11,13,15,17,19,21,23,25,27,-1,-1,-1,-1,-1,-1,-1,-1,-1,-1,-1,-1,-1,-1,-1],"loss_changes":[1.063106E1,7.9840055E0,5.3446293E0,1.076265E1,3.473005E0,2.897009E0,6.435666E0,6.2549896E0,4.625181E0,3.9800987E0,3.345561E0,2.2562962E0,3.5307157E0,4.1892157E0,0E0,0E0,0E0,0E0,0E0,0E0,0E0,0E0,0E0,0E0,0E0,0E0,0E0,0E0,0E0],"parents":[2147483647,0,0,1,1,2,2,3,3,4,4,5,5,6,6,7,7,8,8,9,9,10,10,11,11,12,12,13,13],"right_children":[2,4,6,8,10,12,14,16,18,20,22,24,26,28,-1,-1,-1,-1,-1,-1,-1,-1,-1,-1,-1,-1,-1,-1,-1],"split_conditions":[1.1584507E-1,9.298475E-4,-4.780254E-2,1.2537733E-2,-1.7886763E0,-7.1486723E-1,3.6950523E-1,-3.807816E-1,-2.7219752E-2,4.9960595E-3,4.279981E-1,-1.3468361E0,2E0,2.3054409E-1,-1.2177748E-2,-1.5232617E-2,-1.9509436E-3,1.4206184E-3,4.349391E-3,1.0811208E-2,-1.0472393E-2,-1.2278046E-4,-2.9085986E-3,-3.818232E-3,-1.747146E-2,-8.48016E-3,7.206686E-3,-2.175046E-3,7.64705E-3],"split_indices":[3,1,1,3,0,0,1,1,1,1,1,0,5,1,0,0,0,0,0,0,0,0,0,0,0,0,0,0,0],"split_type":[0,0,0,0,0,0,0,0,0,0,0,0,0,0,0,0,0,0,0,0,0,0,0,0,0,0,0,0,0],"sum_hessian":[3.080798E3,2.8805588E3,2.0023924E2,6.538922E2,2.2266667E3,2.8178036E1,1.7206122E2,8.556353E1,5.683287E2,1.3674708E1,2.212992E3,1.4718095E1,1.345994E1,1.5907625E2,1.29849615E1,7.957261E0,7.760627E1,3.9262744E2,1.7570125E2,1.4914185E0,1.21832905E1,2.112323E3,1.0066898E2,4.4872212E0,1.0230873E1,9.719659E0,3.7402816E0,1.4959999E2,9.476257E0],"tree_param":{"num_deleted":"0","num_feature":"6","num_nodes":"29","size_leaf_vector":"1"}},{"base_weights":[1.0730508E-2,2.3321027E-2,-2.3809779E-1,1.0479731E-1,-8.0739055E-4,-1.7886727E-1,-1.232608E-2,5.1428147E-2,3.6001533E-1,-2.0719213E-2,9.324002E-2,-1.23367436E-1,-7.108869E-1,1.2438865E-3,-6.158126E-3,6.4672963E-3,-5.5358917E-3,-6.559065E-4,1.8574387E-3,-9.391302E-3,1.8714488E-3,-3.4920904E-3,5.237303E-3,5.964415E-3,-1.4792255E-2],"categories":[],"categories_nodes":[],"categories_segments":[],"categories_sizes":[],"default_left":[0,0,0,0,0,0,0,0,0,0,0,0,0,0,0,0,0,0,0,0,0,0,0,0,0],"id":41,"left_children":[1,3,5,7,9,11,-1,13,15,17,19,21,23,-1,-1,-1,-1,-1,-1,-1,-1,-1,-1,-1,-1],"loss_changes":[9.718351E0,5.803157E0,5.0178757E0,9.167986E0,4.268639E0,3.9550939E0,0E0,8.167606E0,6.2001677E0,6.2616277E0,9.109447E0,6.5553484E0,4.274636E0,0E0,0E0,0E0,0E0,0E0,0E0,0E0,0E0,0E0,0E0,0E0,0E0],"parents":[2147483647,0,0,1,1,2,2,3,3,4,4,5,5,7,7,8,8,9,9,10,10,11,11,12,12],"right_children":[2,4,6,8,10,12,-1,14,16,18,20,22,24,-1,-1,-1,-1,-1,-1,-1,-1,-1,-1,-1,-1],"split_conditions":[1.357551E-1,9.298475E-4,3.13769E-1,4.0228802E-1,1.0992959E0,1.1568226E0,-1.232608E-2,9.0645604E-2,3E0,4E0,6.88235E-3,6.076011E-1,1.5721908E-1,1.2438865E-3,-6.158126E-3,6.4672963E-3,-5.5358917E-3,-6.559065E-4,1.8574387E-3,-9.391302E-3,1.8714488E-3,-3.4920904E-3,5.237303E-3,5.964415E-3,-1.4792255E-2],"split_indices":[3,1,1,0,0,0,0,3,5,5,1,0,3,0,0,0,0,0,0,0,0,0,0,0,0],"split_type":[0,0,0,0,0,0,0,0,0,0,0,0,0,0,0,0,0,0,0,0,0,0,0,0,0],"sum_hessian":[3.0992803E3,2.9508745E3,1.4840569E2,6.734479E2,2.2774265E3,1.3591853E2,1.2487159E1,5.5797095E2,1.15476944E2,1.8801407E3,3.9728583E2,1.2419455E2,1.1723986E1,5.2312427E2,3.4846703E1,1.0558351E2,9.893433E0,1.6225723E3,2.5756854E2,1.5887553E1,3.8139825E2,1.0125144E2,2.2943108E1,2.2437274E0,9.480258E0],"tree_param":{"num_deleted":"0","num_feature":"6","num_nodes":"25","size_leaf_vector":"1"}},{"base_weights":[3.7015346E-3,2.4428919E-2,-1.3674268E-1,1.0454983E-1,-9.519654E-3,4.672464E-1,-1.6058676E-1,2.8179958E-1,-1.1264545E-2,-5.5103153E-2,4.608909E-2,-5.567163E-3,1.8251376E-2,-2.837005E-1,-1.0180152E-1,7.948265E-3,2.107752E-3,1.9778197E-3,-1.4815887E-3,4.8444137E-5,-2.6752402E-3,5.542322E-3,2.9724994E-4,1.0044834E-2,-1.0175171E-2,-5.8399634E-3,1.9644704E-3,1.22282235E-2,-1.8552782E-3],"categories":[],"categories_nodes":[],"categories_segments":[],"categories_sizes":[],"default_left":[0,0,0,0,0,0,0,0,0,0,0,0,0,0,0,0,0,0,0,0,0,0,0,0,0,0,0,0,0],"id":42,"left_children":[1,3,5,7,9,11,13,15,17,19,21,23,-1,25,27,-1,-1,-1,-1,-1,-1,-1,-1,-1,-1,-1,-1,-1,-1],"loss_changes":[9.03393E0,7.3560658E0,5.8227906E0,1.652525E1,4.819311E0,5.468894E0,2.7552462E0,1.1075117E1,6.1216326E0,7.5112114E0,7.270155E0,5.199879E0,0E0,5.4719915E0,5.357156E0,0E0,0E0,0E0,0E0,0E0,0E0,0E0,0E0,0E0,0E0,0E0,0E0,0E0,0E0],"parents":[2147483647,0,0,1,1,2,2,3,3,4,4,5,5,6,6,7,7,8,8,9,9,10,10,11,11,13,13,14,14],"right_children":[2,4,6,8,10,12,14,16,18,20,22,24,-1,26,28,-1,-1,-1,-1,-1,-1,-1,-1,-1,-1,-1,-1,-1,-1],"split_conditions":[7.791725E-2,-9.723613E-3,-1.4958555E0,2.4548264E-2,2.5180386E-2,-1.6765487E0,3.1237777E-3,-2.4285857E-2,-4.0828437E-2,1.2301698E-2,-1.995576E-1,-3.3341587E-1,1.8251376E-2,3.8173005E-1,3.418984E-3,7.948265E-3,2.107752E-3,1.9778197E-3,-1.4815887E-3,4.8444137E-5,-2.6752402E-3,5.542322E-3,2.9724994E-4,1.0044834E-2,-1.0175171E-2,-5.8399634E-3,1.9644704E-3,1.22282235E-2,-1.8552782E-3],"split_indices":[3,2,0,3,3,0,1,2,2,2,1,1,0,0,1,0,0,0,0,0,0,0,0,0,0,0,0,0,0],"split_type":[0,0,0,0,0,0,0,0,0,0,0,0,0,0,0,0,0,0,0,0,0,0,0,0,0,0,0,0,0],"sum_hessian":[3.1011858E3,2.7030793E3,3.9810648E2,8.0385284E2,1.8992264E3,1.4413193E1,3.8369327E2,3.1710373E2,4.867491E2,1.0436976E3,8.555288E2,9.4465885E0,4.966604E0,1.22763664E2,2.609296E2,1.1406367E2,2.0304007E2,1.8449734E2,3.0225177E2,7.0906775E2,3.3462988E2,6.3298275E1,7.922305E2,4.7170424E0,4.7295456E0,9.788888E1,2.4874786E1,5.2367344E0,2.5569287E2],"tree_param":{"num_deleted":"0","num_feature":"6","num_nodes":"29","size_leaf_vector":"1"}},{"base_weights":[3.3391295E-3,-4.5558918E-1,1.0532699E-2,2.9229364E-1,-6.006463E-1,5.3033683E-2,-6.4175524E-2,-1.0533906E-2,1.2377697E-2,5.447324E-3,-6.669559E-1,9.896664E-2,-7.0904255E-2,4.3304116E-1,-7.649347E-2,-6.767837E-3,-1.429316E-2,2.9383416E-3,1.1875268E-4,-5.6687715E-3,8.411367E-4,-1.0717336E-2,9.96362E-3,-9.307146E-4,-5.9593865E-3],"categories":[],"categories_nodes":[],"categories_segments":[],"categories_sizes":[],"default_left":[0,0,0,0,0,0,0,0,0,0,0,0,0,0,0,0,0,0,0,0,0,0,0,0,0],"id":43,"left_children":[1,3,5,7,9,11,13,-1,-1,-1,15,17,19,21,23,-1,-1,-1,-1,-1,-1,-1,-1,-1,-1],"loss_changes":[1.0190069E1,5.34338E0,9.651367E0,5.0372186E0,2.8129463E0,1.1035773E1,6.7841206E0,0E0,0E0,0E0,1.9136429E0,1.2475622E1,2.0465824E1,7.5841208E0,4.9638977E0,0E0,0E0,0E0,0E0,0E0,0E0,0E0,0E0,0E0,0E0],"parents":[2147483647,0,0,1,1,2,2,3,3,4,4,5,5,6,6,10,10,11,11,12,12,13,13,14,14],"right_children":[2,4,6,8,10,12,14,-1,-1,-1,16,18,20,22,24,-1,-1,-1,-1,-1,-1,-1,-1,-1,-1],"split_conditions":[-1.9678241E0,-4.1905787E-2,1.1352632E-2,-8.4033735E-2,1.8181828E1,6.824553E1,-1.4611964E0,-1.0533906E-2,1.2377697E-2,5.447324E-3,2.3445897E-3,-1.2946199E-2,-1.37110315E-2,-1.7886763E0,1.5817313E-1,-6.767837E-3,-1.429316E-2,2.9383416E-3,1.1875268E-4,-5.6687715E-3,8.411367E-4,-1.0717336E-2,9.96362E-3,-9.307146E-4,-5.9593865E-3],"split_indices":[0,2,2,2,4,4,0,0,0,0,2,2,2,0,2,0,0,0,0,0,0,0,0,0,0],"split_type":[0,0,0,0,0,0,0,0,0,0,0,0,0,0,0,0,0,0,0,0,0,0,0,0,0],"sum_hessian":[3.0841992E3,4.6635883E1,3.0375635E3,7.4110594E0,3.9224827E1,1.9363038E3,1.1012596E3,2.474648E0,4.936412E0,2.2367842E0,3.698804E1,1.4128757E3,5.234281E2,2.5797132E1,1.0754624E3,2.2549437E1,1.4438605E1,6.838082E2,7.290675E2,1.5256892E2,3.7085916E2,3.9754062E0,2.1821726E1,1.0302623E3,4.5200096E1],"tree_param":{"num_deleted":"0","num_feature":"6","num_nodes":"25","size_leaf_vector":"1"}},{"base_weights":[-6.309345E-3,4.613206E-2,-5.887832E-2,6.1579954E-2,-2.6423424E-1,4.217166E-1,-6.7268476E-2,-3.595194E-2,1.2175016E-1,-3.4922472E-1,4.3715957E-1,7.1517515E-1,-5.508893E-3,-6.830953E-1,-6.123827E-2,-1.2539809E-3,6.628175E-3,2.0283351E-3,-6.023152E-3,1.2365583E-3,-7.2508226E-3,1.4220494E-2,-5.593396E-3,3.0804562E-4,2.1800933E-2,-1.4798363E-2,5.3687263E-3,5.5528884E-3,-1.7159786E-2,-9.582225E-5,-1.9069258E-3],"categories":[],"categories_nodes":[],"categories_segments":[],"categories_sizes":[],"default_left":[0,0,0,0,0,0,0,0,0,0,0,0,0,0,0,0,0,0,0,0,0,0,0,0,0,0,0,0,0,0,0],"id":44,"left_children":[1,3,5,7,9,11,13,15,17,19,21,23,25,27,29,-1,-1,-1,-1,-1,-1,-1,-1,-1,-1,-1,-1,-1,-1,-1,-1],"loss_changes":[8.565472E0,7.474016E0,6.2847614E0,8.704674E0,4.5603127E0,3.358932E0,5.6244087E0,1.2932777E1,6.5198584E0,3.8913078E0,3.8443103E0,8.108835E0,4.5919385E0,7.5584373E0,5.4641294E0,0E0,0E0,0E0,0E0,0E0,0E0,0E0,0E0,0E0,0E0,0E0,0E0,0E0,0E0,0E0,0E0],"parents":[2147483647,0,0,1,1,2,2,3,3,4,4,5,5,6,6,7,7,8,8,9,9,10,10,11,11,12,12,13,13,14,14],"right_children":[2,4,6,8,10,12,14,16,18,20,22,24,26,28,30,-1,-1,-1,-1,-1,-1,-1,-1,-1,-1,-1,-1,-1,-1,-1,-1],"split_conditions":[2.3445897E-3,3.2460952E-1,-4.5539936E-1,-4.8037037E-1,2.1465101E0,2.8799508E-2,-1.9678241E0,5E0,2.0121574E0,-4.2961996E-2,-8.8220015E-3,1.5200659E-2,-1.4611964E0,-2.2613417E-1,3.3141542E-2,-1.2539809E-3,6.628175E-3,2.0283351E-3,-6.023152E-3,1.2365583E-3,-7.2508226E-3,1.4220494E-2,-5.593396E-3,3.0804562E-4,2.1800933E-2,-1.4798363E-2,5.3687263E-3,5.5528884E-3,-1.7159786E-2,-9.582225E-5,-1.9069258E-3],"split_indices":[2,1,1,0,0,2,0,5,0,2,2,2,0,1,1,0,0,0,0,0,0,0,0,0,0,0,0,0,0,0,0],"split_type":[0,0,0,0,0,0,0,0,0,0,0,0,0,0,0,0,0,0,0,0,0,0,0,0,0,0,0,0,0,0,0],"sum_hessian":[3.1050593E3,1.554477E3,1.5505823E3,1.4815378E3,7.293915E1,2.5760094E1,1.5248221E3,5.654247E2,9.1611316E2,6.55039E1,7.4352493E0,1.4871176E1,1.0888918E1,1.3697573E1,1.5111246E3,5.1490594E2,5.0518745E1,8.9384283E2,2.227036E1,1.5623118E1,4.9880783E1,4.45518E0,2.9800694E0,8.191288E0,6.679888E0,2.479902E0,8.409016E0,4.2292104E0,9.468362E0,8.252465E2,6.8587805E2],"tree_param":{"num_deleted":"0","num_feature":"6","num_nodes":"31","size_leaf_vector":"1"}},{"base_weights":[7.6191323E-3,4.5501962E-2,-7.308166E-2,1.6530912E-1,-1.9971302E-2,-4.231131E-1,-5.417637E-3,3.2642907E-1,3.9513048E-2,-1.1239387E-1,5.122624E-2,4.0773246E-1,-4.6496683E-1,-1.1744553E-1,7.75629E-2,7.6963956E-4,7.1156817E-3,8.3665154E-4,-1.0322396E-2,-1.3238613E-3,-7.278887E-3,2.1942225E-3,-2.2190256E-5,1.8644253E-2,-1.659329E-3,-3.9209933E-3,-9.468627E-3,-7.1637924E-3,-1.2447502E-3,2.0493704E-3,-2.456441E-3],"categories":[],"categories_nodes":[],"categories_segments":[],"categories_sizes":[],"default_left":[0,0,0,0,0,0,0,0,0,0,0,0,0,0,0,0,0,0,0,0,0,0,0,0,0,0,0,0,0,0,0],"id":45,"left_children":[1,3,5,7,9,11,13,15,17,19,21,23,25,27,29,-1,-1,-1,-1,-1,-1,-1,-1,-1,-1,-1,-1,-1,-1,-1,-1],"loss_changes":[9.443435E0,1.6491909E1,2.3370377E1,1.504454E1,8.955665E0,5.7481213E0,7.706167E0,1.3228207E1,4.989101E0,5.286332E0,3.8526733E0,3.6871266E0,5.001873E0,4.338109E0,6.8105745E0,0E0,0E0,0E0,0E0,0E0,0E0,0E0,0E0,0E0,0E0,0E0,0E0,0E0,0E0,0E0,0E0],"parents":[2147483647,0,0,1,1,2,2,3,3,4,4,5,5,6,6,7,7,8,8,9,9,10,10,11,11,12,12,13,13,14,14],"right_children":[2,4,6,8,10,12,14,16,18,20,22,24,26,28,30,-1,-1,-1,-1,-1,-1,-1,-1,-1,-1,-1,-1,-1,-1,-1,-1],"split_conditions":[6.911443E1,-1.1798267E-2,-1.25591345E-2,3.0658206E-2,4.6175953E1,1.2908667E-2,-2.7011815E-1,-5.7615066E-1,6.746984E1,4.5155396E1,5.4412996E-3,-1.9512093E-2,-4.423594E-1,7.1875E1,5.323147E-2,7.6963956E-4,7.1156817E-3,8.3665154E-4,-1.0322396E-2,-1.3238613E-3,-7.278887E-3,2.1942225E-3,-2.2190256E-5,1.8644253E-2,-1.659329E-3,-3.9209933E-3,-9.468627E-3,-7.1637924E-3,-1.2447502E-3,2.0493704E-3,-2.456441E-3],"split_indices":[4,2,2,3,4,3,0,0,4,4,2,2,0,4,2,0,0,0,0,0,0,0,0,0,0,0,0,0,0,0,0],"split_type":[0,0,0,0,0,0,0,0,0,0,0,0,0,0,0,0,0,0,0,0,0,0,0,0,0,0,0,0,0,0,0],"sum_hessian":[3.0868545E3,2.101022E3,9.858324E2,7.419075E2,1.3591145E3,1.5884764E2,8.2698474E2,3.2458423E2,4.1732324E2,5.9115234E2,7.6796216E2,7.1989174E0,1.5164873E2,3.5172415E2,4.7526062E2,1.1397988E2,2.1060434E2,4.09103E2,8.220237E0,5.5637366E2,3.477868E1,2.7329514E2,4.9466702E2,2.2215252E0,4.977392E0,6.933513E1,8.23136E1,2.959446E1,3.221297E2,3.8216403E2,9.309657E1],"tree_param":{"num_deleted":"0","num_feature":"6","num_nodes":"31","size_leaf_vector":"1"}},{"base_weights":[5.9298344E-4,9.947471E-3,-3.2611212E-1,1.0647486E-1,-1.8031454E-2,-2.3288245E-1,-1.0519173E0,1.4023013E-1,-2.591413E-1,1.09773435E-1,-3.7113715E-2,-1.07350774E-1,-8.6151874E-1,3.084616E-3,-1.9009158E-2,-1.4593004E-3,2.847438E-3,-5.4167234E-3,8.4277885E-3,4.9118167E-3,-2.6416618E-3,-2.402288E-3,-2.2220801E-4,-6.480406E-3,3.970505E-3,-1.9657245E-2,-1.3180219E-3],"categories":[],"categories_nodes":[],"categories_segments":[],"categories_sizes":[],"default_left":[0,0,0,0,0,0,0,0,0,0,0,0,0,0,0,0,0,0,0,0,0,0,0,0,0,0,0],"id":46,"left_children":[1,3,5,7,9,11,13,15,17,19,21,23,25,-1,-1,-1,-1,-1,-1,-1,-1,-1,-1,-1,-1,-1,-1],"loss_changes":[9.423639E0,8.097633E0,5.562951E0,8.351552E0,5.6739006E0,6.011161E0,2.829609E0,7.292569E0,4.999878E0,1.886869E1,5.5497684E0,8.040261E0,4.307168E0,0E0,0E0,0E0,0E0,0E0,0E0,0E0,0E0,0E0,0E0,0E0,0E0,0E0,0E0],"parents":[2147483647,0,0,1,1,2,2,3,3,4,4,5,5,6,6,7,7,8,8,9,9,10,10,11,11,12,12],"right_children":[2,4,6,8,10,12,14,16,18,20,22,24,26,-1,-1,-1,-1,-1,-1,-1,-1,-1,-1,-1,-1,-1,-1],"split_conditions":[1.1875456E-1,9.298475E-4,2.6234296E-1,9.0645604E-2,-3.3095706E-2,2.3024544E-1,-1.07366666E-1,1.426824E-2,-8.125111E-3,6.2611185E-2,-6.67086E-1,1.0909886E-1,